svm_type c_svc
kernel_type rbf
gamma 0.016666666666666666
nr_class 2
total_sv 40
rho 0.7451097339214612
label 1 -1
nr_sv 8 32
SV
1.0 1:2.0 2:0.0 3:102.69371937952194 4:2.0 5:0.0 6:82.28000972289685 7:1.0 8:1.5526027132806048 9:54.378304497290095 10:1.0 11:1.5581379460996243 12:53.665631459994955 13:1.0 14:1.554377832619024 15:52.92447448959697 16:1.0 17:1.5194337316422635 18:50.99019513592785 19:1.0 20:1.5580740904741956 21:50.15974481593781 22:1.0 23:1.5557334055455312 24:48.373546489791295 25:1.0 26:1.5413272950039056 27:47.20169488482379 28:1.0 29:1.5589990269901137 30:47.16990566028302 31:1.0 32:0.058553070988601665 33:46.52956049652737 34:1.0 35:1.5656372253975714 36:45.254833995939045 37:1.0 38:0.0015327212127400822 39:44.598206241955516 40:1.0 41:1.5675012675914997 42:43.41658669218482 43:1.0 44:1.5670863231864292 45:43.266615305567875 46:1.0 47:1.5657730342723408 48:42.44997055358225 49:1.0 50:0.07712063499953534 51:41.593268686170845 52:1.0 53:0.009228495820298749 54:39.319206502675 55:1.0 56:0.04429442917675366 57:38.01315561749642 58:2.0 59:1.562407833071741 60:33.54101966249684 
1.0 1:1.0 2:1.5683786018891914 3:41.14608122288197 4:2.0 5:0.0 6:40.85339643163099 7:1.0 8:1.56731416687941 9:37.8549864614954 10:1.0 11:1.5678411053420764 12:37.36308338453881 13:1.0 14:1.5706595245387993 15:36.76955262170047 16:1.0 17:1.5698793851639194 18:36.6742416417845 19:1.0 20:1.5669405548139876 21:35.73513677041127 22:1.0 23:0.0056325147905241825 24:35.4682957019364 25:1.0 26:1.5695198674268138 27:35.35533905932738 28:1.0 29:1.567112171795935 30:33.24154027718932 31:1.0 32:1.5681102576802384 33:31.622776601683793 34:1.0 35:0.0015914956592994881 36:31.400636936215164 37:1.0 38:0.0042914978419344 39:30.4138126514911 40:1.0 41:1.5672992032431332 42:30.083217912982647 43:2.0 44:1.5314344659254864 45:29.154759474226502 46:1.0 47:1.5651576880836924 48:28.071337695236398 49:1.0 50:1.5680308242685737 51:26.90724809414742 52:1.0 53:1.5527336267317324 54:25.059928172283335 55:1.0 56:0.001471692331984174 57:24.331050121192877 58:1.0 59:1.5700750097299925 60:24.041630560342615 
1.0 1:1.0 2:0.024253237595860757 3:33.1058907144937 4:1.0 5:0.026481758278768558 6:28.0178514522438 7:1.0 8:0.004835751681443496 9:27.784887978899608 10:2.0 11:1.5467069231357542 12:26.40075756488817 13:2.0 14:1.567019927810829 15:25.0 16:2.0 17:1.5559535347311761 18:23.853720883753127 19:1.0 20:1.5597930552587302 21:23.259406699226016 22:2.0 23:0.12728899830792373 24:23.021728866442675 25:1.0 26:0.010265580903176433 27:22.627416997969522 28:1.0 29:1.565768459669593 30:22.360679774997898 31:1.0 32:1.5577835395756727 33:22.20360331117452 34:1.0 35:1.5474449381556625 36:21.400934559032695 37:1.0 38:1.5651228497505558 39:21.18962010041709 40:1.0 41:1.5701356191242601 42:21.02379604162864 43:2.0 44:1.5691960577401531 45:21.02379604162864 46:1.0 47:1.5568499897759636 48:20.591260281974 49:1.0 50:1.569620595120774 51:20.396078054371138 52:1.0 53:0.0021190582213136844 54:19.924858845171276 55:1.0 56:1.5637866328011114 57:19.72308292331602 58:2.0 59:1.56896957503559 60:19.1049731745428 
1.0 1:2.0 2:1.5660896821528834 3:35.17101079013795 4:1.0 5:0.014113380553102824 6:34.0147027033899 7:1.0 8:1.4999985281939814 9:29.154759474226502 10:1.0 11:1.5700425315226574 12:28.653097563788805 13:1.0 14:1.569939550468812 15:28.635642126552707 16:1.0 17:0.017241544527503504 18:28.071337695236398 19:1.0 20:0.005846153795101558 21:26.419689627245813 22:1.0 23:1.570140589617146 24:25.96150997149434 25:1.0 26:1.570316355744584 27:25.632011235952593 28:1.0 29:1.5699188429878181 30:24.758836806279895 31:2.0 32:1.5699799032385766 33:24.331050121192877 34:1.0 35:1.566077454057708 36:22.67156809750927 37:1.0 38:7.718508556435022E-4 39:22.561028345356956 40:1.0 41:1.5691388064833602 42:22.20360331117452 43:1.0 44:0.007873099847524063 45:21.095023109728988 46:2.0 47:1.4854810848793232 48:21.095023109728988 49:2.0 50:1.5678795922482125 51:21.02379604162864 52:1.0 53:1.553819932488798 54:20.223748416156685 55:1.0 56:1.4763010328090873 57:19.4164878389476 58:1.0 59:1.5663952001929098 60:19.235384061671343 
1.0 1:2.0 2:0.0 3:47.885279575251516 4:2.0 5:0.0 6:46.04345773288535 7:1.0 8:0.91032907471386 9:33.28663395418648 10:2.0 11:1.5687089177807965 12:30.0 13:2.0 14:1.5683417086162286 15:30.0 16:2.0 17:1.540071521225935 18:28.178005607210743 19:1.0 20:1.480580247610017 21:25.495097567963924 22:1.0 23:1.5681221210035379 24:24.20743687382041 25:1.0 26:1.5611801415877322 27:23.345235059857504 28:2.0 29:1.568271561460811 30:23.345235059857504 31:1.0 32:1.5704539585971682 33:23.021728866442675 34:1.0 35:1.5666292669076742 36:23.021728866442675 37:1.0 38:1.5705243027141707 39:22.80350850198276 40:1.0 41:1.5622051300585449 42:22.80350850198276 43:1.0 44:1.5698537658543403 45:22.80350850198276 46:1.0 47:1.5597133670835137 48:21.93171219946131 49:1.0 50:1.53790387954409 51:21.840329667841555 52:1.0 53:0.0012724361905665795 54:21.095023109728988 55:1.0 56:1.5705804372182053 57:21.0 58:1.0 59:1.5703340217975055 60:20.615528128088304 
1.0 1:2.0 2:0.0 3:39.66106403010388 4:2.0 5:1.5634094850336109 6:33.52610922848042 7:1.0 8:1.5429285625832339 9:30.886890422961002 10:1.0 11:1.5134834810246967 12:29.732137494637012 13:2.0 14:1.5409260764101047 15:29.068883707497267 16:1.0 17:0.5525515214750197 18:26.40075756488817 19:1.0 20:1.5607252357960317 21:25.0 22:1.0 23:1.5644888107579729 24:22.0 25:1.0 26:1.5605099901736919 27:21.470910553583888 28:1.0 29:1.5669533595086351 30:21.0 31:1.0 32:1.5697937181305355 33:20.615528128088304 34:1.0 35:1.569730642386862 36:20.591260281974 37:1.0 38:0.004465520564516372 39:20.518284528683193 40:1.0 41:1.4801185343813068 42:20.248456731316587 43:2.0 44:0.07916119039633505 45:20.223748416156685 46:1.0 47:1.5653871765212608 48:19.697715603592208 49:1.0 50:0.008491243475196456 51:19.6468827043885 52:1.0 53:1.5571725527320988 54:19.313207915827967 55:1.0 56:1.5592071912659915 57:19.235384061671343 58:1.0 59:1.5323061453627735 60:19.1049731745428 
1.0 1:2.0 2:0.0 3:58.69412236331676 4:1.0 5:1.549964637840336 6:38.27531841800928 7:1.0 8:1.5381018045387562 9:37.20215047547655 10:1.0 11:1.5381599457140305 12:36.89173349139343 13:1.0 14:1.5359957578699421 15:36.124783736376884 16:1.0 17:1.3306979418688654 18:31.400636936215164 19:1.0 20:1.5160639586467073 21:31.25699921617557 22:2.0 23:1.5634198357224938 24:30.066592756745816 25:2.0 26:1.5669539075480885 27:30.066592756745816 28:1.0 29:1.5523901602906536 30:28.861739379323623 31:2.0 32:1.566318861319232 33:28.42534080710379 34:1.0 35:0.1898801079268425 36:28.160255680657446 37:1.0 38:1.5567343735418677 39:27.294688127912362 40:1.0 41:1.5602055130542059 42:27.16615541441225 43:1.0 44:1.5621662887204564 45:26.1725046566048 46:1.0 47:1.5374027561143198 48:26.1725046566048 49:1.0 50:1.5662542328615627 51:22.135943621178654 52:1.0 53:0.27258020347064704 54:22.02271554554524 55:1.0 56:1.5559059712834848 57:21.02379604162864 58:1.0 59:1.5703958123128743 60:20.024984394500787 
1.0 1:2.0 2:0.0 3:44.204072210600685 4:1.0 5:1.5688898246836862 6:29.154759474226502 7:1.0 8:1.5691985927215584 9:26.92582403567252 10:1.0 11:1.5600578113974188 12:26.019223662515376 13:2.0 14:1.5660584817502317 15:25.179356624028344 16:1.0 17:1.569199179561379 18:24.698178070456937 19:1.0 20:1.5694989395359094 21:23.600847442411894 22:1.0 23:0.013205635959637729 24:23.08679276123039 25:2.0 26:0.0028823021578567656 27:22.090722034374522 28:2.0 29:1.5622653921795355 30:20.808652046684813 31:1.0 32:0.010280957169464705 33:18.973665961010276 34:2.0 35:1.5691153933997122 36:18.681541692269406 37:1.0 38:1.566264097445386 39:18.439088914585774 40:1.0 41:1.5679834999364932 42:18.027756377319946 43:1.0 44:0.009457621495856789 45:17.46424919657298 46:2.0 47:1.5064825666756887 48:17.029386365926403 49:1.0 50:1.5589004040644137 51:16.76305461424021 52:2.0 53:0.433449330695363 54:16.64331697709324 55:1.0 56:1.5642804107032937 57:16.55294535724685 58:2.0 59:1.5535011441529836 60:16.401219466856727 
-0.22956583279933718 1:2.0 2:1.328165897794285 3:43.46262762420146 4:2.0 5:0.0 6:38.3275357934736 7:1.0 8:1.4696861420497884 9:34.438350715445125 10:1.0 11:1.5707225603825952 12:33.24154027718932 13:1.0 14:0.0042343988112534345 15:33.015148038438355 16:1.0 17:1.5694412041799586 18:33.015148038438355 19:1.0 20:0.024292942911081822 21:32.7566787083184 22:1.0 23:0.0034289659623682753 24:31.240998703626616 25:1.0 26:1.5706619139422355 27:31.11269837220809 28:1.0 29:1.5694078618053027 30:31.064449134018133 31:1.0 32:0.00456177068595305 33:30.083217912982647 34:1.0 35:0.0032040845926253527 36:29.732137494637012 37:1.0 38:1.5679131861260374 39:29.120439557122072 40:1.0 41:1.5689809203599148 42:29.068883707497267 43:1.0 44:1.5693248520716014 45:28.284271247461902 46:1.0 47:0.008997314109928508 48:28.178005607210743 49:1.0 50:0.0050925567621585045 51:28.160255680657446 52:1.0 53:1.568252691056272 54:27.65863337187866 55:1.0 56:0.00717909703244686 57:27.202941017470888 58:1.0 59:1.5426269886613306 60:27.202941017470888 
-0.20600738868616908 1:1.0 2:1.544770548266033 3:53.23532661682466 4:1.0 5:1.5579059367169283 6:45.79301256742124 7:1.0 8:1.447664975594587 9:43.68065933568311 10:1.0 11:1.5648189904611551 12:42.80186911806539 13:1.0 14:1.4909714853604845 15:42.720018726587654 16:1.0 17:1.5305495257253514 18:42.20189569201838 19:1.0 20:0.004285283788821063 21:41.340053217188775 22:1.0 23:1.5093508377380276 24:40.792156108742276 25:1.0 26:1.479454687635227 27:39.96248240537617 28:1.0 29:1.5695436802996081 30:39.84971769034255 31:1.0 32:1.5303788893778234 33:39.44616584663204 34:1.0 35:1.5227620563347382 36:39.408120990476064 37:1.0 38:1.5281878612481967 39:39.01281840626232 40:1.0 41:0.006562560801334884 42:39.0 43:1.0 44:0.0010580050053878626 45:37.48332962798263 46:1.0 47:1.5131013502301518 48:36.87817782917155 49:1.0 50:0.001256729049504951 51:36.71511950137164 52:1.0 53:0.003685918332966728 54:36.22154055254967 55:1.0 56:0.0060737540078772394 57:35.73513677041127 58:1.0 59:0.002971520094911387 60:35.12833614050059 
-0.13900030954813414 1:1.0 2:1.514371692898788 3:50.92150822589606 4:1.0 5:1.5268497995509518 6:44.0 7:1.0 8:1.5303424346965941 9:42.720018726587654 10:2.0 11:1.5457748919082328 12:42.190046219457976 13:1.0 14:1.5113012242299715 15:40.607881008493905 16:1.0 17:1.5368112168381225 18:39.45883931389772 19:1.0 20:0.001900716279432959 21:37.656340767525464 22:1.0 23:0.09638362549733856 24:36.235341863986875 25:1.0 26:1.5111758683428151 27:36.124783736376884 28:1.0 29:1.5536274215579748 30:35.17101079013795 31:1.0 32:0.41055498346555286 33:34.785054261852174 34:1.0 35:0.9833144313874446 36:34.48187929913333 37:1.0 38:1.532047977369618 39:33.0 40:1.0 41:1.5358720862149262 42:32.28002478313795 43:1.0 44:1.5707782757156579 45:32.202484376209235 46:1.0 47:1.405180136159296 48:31.575306807693888 49:1.0 50:0.0029684976899005703 51:31.38470965295043 52:1.0 53:1.5707235528763333 54:31.064449134018133 55:2.0 56:0.005608907778098067 57:31.016124838541646 58:1.0 59:1.5522671829758936 60:30.886890422961002 
-0.1639272880806155 1:1.0 2:1.511443485653344 3:43.08131845707603 4:1.0 5:0.003146406226491802 6:42.20189569201838 7:1.0 8:0.632549856633619 9:39.96248240537617 10:1.0 11:0.0022965621691230314 12:39.92492955535426 13:1.0 14:1.4930281728497514 15:38.8329756778952 16:1.0 17:0.005209236794371017 18:37.656340767525464 19:1.0 20:0.0015876053415011355 21:37.48332962798263 22:1.0 23:0.0016371416580147492 24:37.16180835212409 25:1.0 26:0.003673911434553071 27:36.68787265568828 28:1.0 29:1.5248793927893094 30:36.359317925395686 31:1.0 32:0.0034540718792068622 33:35.12833614050059 34:1.0 35:1.4603121720179533 36:35.05709628591621 37:1.0 38:1.1813132883890916 39:34.539832078341085 40:1.0 41:1.5045435481600737 42:33.06055050963308 43:2.0 44:1.56702265804205 45:32.802438933713454 46:1.0 47:0.0018968714337237445 48:32.28002478313795 49:1.0 50:0.05412134895355424 51:31.622776601683793 52:2.0 53:0.034860555539914025 54:31.38470965295043 55:2.0 56:1.5160662817944803 57:31.38470965295043 58:1.0 59:1.5347977747908836 60:31.32091952673165 
-0.1856195359518636 1:2.0 2:0.04070653018621601 3:51.40038910358559 4:1.0 5:0.31511458393587927 6:50.695167422546305 7:1.0 8:1.5400783652493917 9:43.657759905886145 10:1.0 11:1.5692709527232127 12:42.05948168962618 13:1.0 14:1.5208397153883488 15:40.44749683231337 16:1.0 17:1.5052607068009578 18:40.311288741492746 19:1.0 20:1.535237058593262 21:39.20459156782532 22:1.0 23:1.46364869210144 24:38.600518131237564 25:1.0 26:0.0022921922720523197 27:38.3275357934736 28:1.0 29:1.528693800983858 30:37.656340767525464 31:1.0 32:1.5491905966972923 33:37.21558813185679 34:1.0 35:1.5287367390581126 36:37.0 37:2.0 38:1.5222183701374643 39:36.0 40:2.0 41:1.570198909050293 42:35.805027579936315 43:1.0 44:1.5662582909647975 45:35.4682957019364 46:1.0 47:1.511473233060565 48:35.4682957019364 49:1.0 50:0.21051315329708312 51:35.22782990761707 52:1.0 53:1.5268799328923421 54:34.92849839314596 55:1.0 56:1.3293090742075075 57:34.52535300326414 58:1.0 59:0.0034749002566498224 60:34.36568055487916 
-0.10556050054625223 1:2.0 2:0.0 3:46.17358552246078 4:1.0 5:1.5137880609368377 6:44.9221548904324 7:2.0 8:0.03401188081593632 9:42.04759208325728 10:2.0 11:0.0 12:41.78516483155236 13:1.0 14:0.0044918351864398475 15:40.496913462633174 16:2.0 17:0.03461223512617458 18:39.824615503479755 19:1.0 20:0.00241774614343874 21:37.8021163428716 22:1.0 23:1.5304035155761662 24:37.33630940518894 25:1.0 26:1.5326735746024645 27:37.05401462729781 28:1.0 29:0.0033578525718218444 30:36.89173349139343 31:1.0 32:1.4928554357492647 33:34.92849839314596 34:1.0 35:1.5352729825981846 36:34.713109915419565 37:1.0 38:1.5161828127082186 39:34.0 40:1.0 41:1.1624769331604197 42:33.734255586866 43:1.0 44:0.021761461870823375 45:33.1058907144937 46:1.0 47:0.0015471662521531187 48:32.64965543462902 49:2.0 50:1.5300445447679512 51:31.76476034853718 52:1.0 53:0.010414189400691663 54:31.064449134018133 55:1.0 56:6.248822374416008E-4 57:30.528675044947494 58:1.0 59:0.20255206638514578 60:29.966648127543394 
-0.21735332347372868 1:2.0 2:0.2533075345213207 3:48.38388161361178 4:2.0 5:0.0 6:44.94441010848846 7:1.0 8:1.569474411724863 9:37.48332962798263 10:1.0 11:1.5334043607000287 12:36.61966684720111 13:1.0 14:1.569738189580466 15:36.345563690772494 16:1.0 17:1.5700211720746686 18:35.6931365951495 19:1.0 20:0.0021452321799183783 21:34.828149534535996 22:1.0 23:1.5676142673864175 24:34.48187929913333 25:1.0 26:0.007636237556751692 27:34.20526275297414 28:1.0 29:1.5646733917108164 30:33.61547262794322 31:1.0 32:1.5679475370300642 33:33.015148038438355 34:1.0 35:1.5191137193993363 36:32.64965543462902 37:1.0 38:1.5217832119328687 39:32.38826948140329 40:1.0 41:1.5004710751365309 42:32.202484376209235 43:1.0 44:1.566922293588762 45:32.01562118716424 46:1.0 47:1.5316967069023193 48:31.76476034853718 49:2.0 50:1.4881635175650936 51:31.38470965295043 52:1.0 53:0.047477697021230426 54:31.25699921617557 55:1.0 56:0.0010060483556153005 57:31.016124838541646 58:1.0 59:1.5655552210090553 60:30.59411708155671 
-0.1275351351394844 1:2.0 2:0.0 3:46.69047011971501 4:1.0 5:1.3900147749409557 6:39.11521443121589 7:1.0 8:1.507096427182355 9:36.05551275463989 10:2.0 11:0.0 12:35.77708763999664 13:1.0 14:1.379150820037885 15:34.9857113690718 16:1.0 17:1.4924159844503455 18:34.40930106817051 19:1.0 20:1.5339690669846007 21:31.400636936215164 22:1.0 23:1.4995065535791579 24:29.5296461204668 25:1.0 26:1.5051059917339669 27:29.206163733020468 28:1.0 29:1.5163651910730638 30:29.0 31:1.0 32:1.5038075493167118 33:28.442925306655784 34:1.0 35:1.5222805766814658 36:28.442925306655784 37:1.0 38:0.00474971119563763 39:27.892651361962706 40:2.0 41:1.3903520595642804 42:27.294688127912362 43:2.0 44:0.04364556729956977 45:27.294688127912362 46:1.0 47:0.05602214074452104 48:27.16615541441225 49:1.0 50:1.5381434284946776 51:26.248809496813376 52:1.0 53:1.4482838159666718 54:24.698178070456937 55:1.0 56:0.0021806615280480614 57:24.413111231467404 58:1.0 59:1.5247173143327388 60:24.08318915758459 
-0.20650321575325922 1:1.0 2:1.5490259052838844 3:41.773197148410844 4:1.0 5:1.5270652161802474 6:40.36087214122113 7:1.0 8:1.55746990721569 9:39.05124837953327 10:1.0 11:1.5573954631304514 12:38.600518131237564 13:1.0 14:1.5554378679406085 15:36.89173349139343 16:1.0 17:1.5569081929664816 18:34.132096331752024 19:1.0 20:1.543645922803006 21:34.058772731852805 22:1.0 23:1.4488583709019178 24:27.65863337187866 25:1.0 26:0.18004515186035547 27:23.323807579381203 28:1.0 29:1.5590207512034084 30:23.08679276123039 31:2.0 32:1.4227127826027794 33:23.0 34:2.0 35:1.526309448779796 36:23.0 37:1.0 38:1.5245930407713668 39:22.825424421026653 40:1.0 41:1.570071072719554 42:22.02271554554524 43:1.0 44:1.5493539191065429 45:21.93171219946131 46:1.0 47:1.5288690239859368 48:21.540659228538015 49:1.0 50:1.5244406903198853 51:20.8806130178211 52:1.0 53:0.00328117314264975 54:20.518284528683193 55:1.0 56:1.5549188547796418 57:20.248456731316587 58:1.0 59:1.5226456828931147 60:20.248456731316587 
-0.2547529468666979 1:2.0 2:0.0 3:74.81310045707235 4:1.0 5:1.549188354997479 6:41.773197148410844 7:1.0 8:1.5281412012100444 9:40.36087214122113 10:1.0 11:1.557363213584873 12:39.05124837953327 13:1.0 14:1.5573017875111441 15:38.600518131237564 16:1.0 17:1.5553485939857543 18:36.89173349139343 19:1.0 20:1.5569004042766557 21:34.132096331752024 22:1.0 23:1.5439541024340904 24:34.058772731852805 25:1.0 26:1.4462960849543292 27:27.65863337187866 28:1.0 29:0.18038338353860842 30:23.323807579381203 31:1.0 32:1.5589684402697814 33:23.08679276123039 34:2.0 35:1.525663595131041 36:23.0 37:2.0 38:1.4227882512459433 39:23.0 40:1.0 41:1.5237495620187873 42:22.825424421026653 43:1.0 44:1.5700906998443867 45:22.02271554554524 46:1.0 47:1.5494071252988584 48:21.93171219946131 49:1.0 50:1.527725996491657 51:21.540659228538015 52:1.0 53:1.523401004273802 54:20.8806130178211 55:1.0 56:0.0033036921671041595 57:20.518284528683193 58:1.0 59:1.522283411283346 60:20.248456731316587 
-0.2548033847441598 1:2.0 2:0.0 3:70.45565981523414 4:2.0 5:1.529583729503561 6:42.1070065428546 7:1.0 8:1.5508614889885108 9:30.066592756745816 10:1.0 11:0.5489000736006696 12:25.495097567963924 13:1.0 14:1.4686781398470459 15:25.238858928247925 16:1.0 17:1.5193335986567578 18:24.020824298928627 19:1.0 20:1.5341752370230148 21:23.345235059857504 22:1.0 23:1.5415357361016548 24:23.08679276123039 25:2.0 26:1.570316463095841 27:22.80350850198276 28:1.0 29:1.535972009519215 30:22.02271554554524 31:2.0 32:1.5699050054916388 33:22.02271554554524 34:1.0 35:0.08077045177146731 36:21.400934559032695 37:1.0 38:1.536712798473088 39:20.615528128088304 40:2.0 41:1.5201146000448973 42:20.024984394500787 43:1.0 44:1.5123655629115835 45:19.6468827043885 46:1.0 47:0.2533648358558709 48:19.209372712298546 49:1.0 50:1.538102612738295 51:18.867962264113206 52:1.0 53:1.5001515113506578 54:18.110770276274835 55:1.0 56:0.0039376997359437125 57:18.027756377319946 58:1.0 59:1.522926589726236 60:17.46424919657298 
-0.8558028809249791 1:1.0 2:1.5400564556827312 3:36.22154055254967 4:1.0 5:1.5432920402936978 6:34.48187929913333 7:1.0 8:1.5279716762883193 9:31.575306807693888 10:1.0 11:1.537546417135168 12:28.160255680657446 13:1.0 14:1.5432102325610055 15:27.018512172212592 16:1.0 17:1.5371973666047987 18:25.495097567963924 19:1.0 20:1.520637931656572 21:24.020824298928627 22:1.0 23:1.5402829302085763 24:23.53720459187964 25:1.0 26:0.005779406234931256 27:22.80350850198276 28:1.0 29:1.5461050269841679 30:22.090722034374522 31:1.0 32:1.543072138571792 33:21.587033144922902 34:1.0 35:1.5302254288133148 36:21.02379604162864 37:1.0 38:1.5694688636514167 39:20.615528128088304 40:1.0 41:1.477795027231302 42:20.024984394500787 43:1.0 44:0.009510633537712254 45:19.4164878389476 46:2.0 47:1.51006115631332 48:19.0 49:2.0 50:1.5301317752218235 51:18.384776310850235 52:1.0 53:0.10938837947753892 54:17.804493814764857 55:1.0 56:0.01504409091114775 57:17.69180601295413 58:1.0 59:1.50327443847748 60:17.08800749063506 
-0.06644807729213346 1:2.0 2:1.4354217855745262 3:40.024992192379 4:2.0 5:1.529152185524036 6:38.27531841800928 7:1.0 8:1.5434990287902053 9:35.34119409414458 10:1.0 11:1.5473917629509804 12:32.984845004941285 13:1.0 14:1.522991975215651 15:31.144823004794873 16:1.0 17:0.0067673361581825145 18:31.144823004794873 19:1.0 20:1.484343665796419 21:31.064449134018133 22:1.0 23:1.5307862009711102 24:30.01666203960727 25:1.0 26:0.28183579005256654 27:29.614185789921695 28:1.0 29:0.0025072679470147063 30:29.017236257093817 31:1.0 32:1.336827321780031 33:28.30194339616981 34:1.0 35:1.5661093550948177 36:27.202941017470888 37:1.0 38:1.5642180771903373 39:26.92582403567252 40:1.0 41:1.4984590552338302 42:25.298221281347036 43:2.0 44:1.3883428338716115 45:25.179356624028344 46:1.0 47:1.5559969315784137 48:25.0 49:1.0 50:1.5338221186701693 51:24.758836806279895 52:1.0 53:1.5075336041067429 54:24.596747752497688 55:1.0 56:1.549402768435426 57:24.351591323771842 58:1.0 59:1.5632769485493403 60:24.0 
-0.24599931151482377 1:1.0 2:1.535637711072053 3:44.553338819890925 4:1.0 5:1.5419933739862257 6:39.05124837953327 7:1.0 8:1.530594728510492 9:39.01281840626232 10:2.0 11:0.3277586203672885 12:37.0 13:1.0 14:1.5354510701036106 15:33.015148038438355 16:1.0 17:1.5325521738227437 18:31.304951684997057 19:1.0 20:1.5100935035790772 21:26.419689627245813 22:1.0 23:1.5178857337650442 24:25.298221281347036 25:1.0 26:1.5139359227247182 27:25.0 28:1.0 29:1.5489089985854503 30:24.515301344262525 31:1.0 32:1.1601200185391587 33:24.020824298928627 34:1.0 35:1.5515110696111574 36:23.53720459187964 37:1.0 38:1.3448733526927068 39:23.021728866442675 40:1.0 41:1.5420269609852557 42:22.20360331117452 43:1.0 44:1.546280973066644 45:21.95449840010015 46:1.0 47:1.564278252178746 48:20.808652046684813 49:1.0 50:1.540386819199997 51:20.615528128088304 52:1.0 53:1.552949894988752 54:20.0 55:1.0 56:1.5507038724559656 57:19.697715603592208 58:1.0 59:1.5518908534255023 60:19.4164878389476 
-0.2433377439043817 1:2.0 2:0.0 3:58.008620049092706 4:1.0 5:1.5351760619633246 6:44.553338819890925 7:1.0 8:1.541403584838367 9:39.05124837953327 10:1.0 11:1.5308813642052792 12:39.01281840626232 13:2.0 14:0.32269934766533304 15:37.0 16:1.0 17:1.5356652200384115 18:33.015148038438355 19:1.0 20:1.5321052917891906 21:31.304951684997057 22:1.0 23:1.5094247779246959 24:26.419689627245813 25:1.0 26:1.5161538993321109 27:25.298221281347036 28:1.0 29:1.511850501492833 30:25.0 31:1.0 32:1.548781689539163 33:24.515301344262525 34:1.0 35:1.1700185282754696 36:24.020824298928627 37:1.0 38:1.5517513312364377 39:23.53720459187964 40:1.0 41:1.541266830923953 42:22.20360331117452 43:1.0 44:1.564237348936958 45:20.808652046684813 46:1.0 47:1.5406466797545173 48:20.615528128088304 49:1.0 50:1.5509711859299373 51:19.697715603592208 52:1.0 53:1.551959472785658 54:19.4164878389476 55:1.0 56:1.537545188186269 57:19.209372712298546 58:1.0 59:1.5698090707034302 60:19.1049731745428 
-0.2693748431808944 1:2.0 2:0.0 3:57.77542730261716 4:1.0 5:0.008170695069271105 6:28.861739379323623 7:2.0 8:1.5426940743191198 9:28.442925306655784 10:2.0 11:0.28885692791517553 12:28.442925306655784 13:1.0 14:1.5622874022445679 15:25.495097567963924 16:1.0 17:0.04380713561164889 18:23.323807579381203 19:1.0 20:1.565940464100023 21:21.400934559032695 22:1.0 23:1.5362166177812173 24:19.72308292331602 25:2.0 26:1.5611893198650364 27:19.313207915827967 28:2.0 29:0.23769710362907406 30:19.313207915827967 31:2.0 32:1.5403117866384723 33:18.439088914585774 34:1.0 35:1.5393917997536628 36:18.439088914585774 37:2.0 38:0.06033471270825498 39:18.35755975068582 40:1.0 41:0.003955589878214175 42:17.804493814764857 43:1.0 44:0.01702923848433452 45:17.69180601295413 46:1.0 47:0.006687364524627815 48:17.26267650163207 49:1.0 50:1.540265241595273 51:16.64331697709324 52:1.0 53:1.5581031795069973 54:16.55294535724685 55:1.0 56:0.8783144192896962 57:16.492422502470642 58:1.0 59:1.5558331304821895 60:15.811388300841896 
-0.6035966493216378 1:1.0 2:1.5497476119543958 3:43.04648650006177 4:1.0 5:1.5381411897222173 6:41.14608122288197 7:1.0 8:1.5549799511541973 9:39.59797974644666 10:1.0 11:1.5516677447401372 12:38.01315561749642 13:2.0 14:0.0 15:37.69615364994153 16:1.0 17:1.5537632003640505 18:36.40054944640259 19:1.0 20:1.5444936955215642 21:36.24913792078372 22:1.0 23:1.5449127121211332 24:35.77708763999664 25:1.0 26:1.5407343790481127 27:34.132096331752024 28:2.0 29:0.10552941064763384 30:33.24154027718932 31:1.0 32:1.549596739542552 33:32.38826948140329 34:1.0 35:1.527240572330831 36:32.2490309931942 37:1.0 38:1.5277728675582982 39:32.202484376209235 40:1.0 41:1.5349932351480886 42:28.442925306655784 43:1.0 44:0.5498565491551696 45:26.68332812825267 46:1.0 47:7.563476950101645E-4 48:26.419689627245813 49:1.0 50:1.548307309762507 51:26.40075756488817 52:2.0 53:0.04435279326760286 54:25.942243542145693 55:1.0 56:0.24595075975832226 57:25.495097567963924 58:1.0 59:1.4885846571877586 60:24.758836806279895 
-0.10001569269806657 1:1.0 2:1.5535156118754838 3:40.718546143004666 4:2.0 5:0.0 6:39.698866482558415 7:2.0 8:0.0 9:39.20459156782532 10:1.0 11:8.01529549469971E-4 12:36.013886210738214 13:1.0 14:1.5568636178206783 15:34.17601498127012 16:1.0 17:1.519796340802597 18:34.0147027033899 19:2.0 20:0.330830904849657 21:30.675723300355934 22:1.0 23:9.146850309335556E-4 24:29.427877939124322 25:1.0 26:1.4960525891935763 27:29.0 28:2.0 29:0.04155959242258417 30:27.313000567495326 31:1.0 32:1.5481054983080589 33:26.68332812825267 34:1.0 35:7.726702008088269E-4 36:26.019223662515376 37:1.0 38:1.4938188477525742 39:25.942243542145693 40:1.0 41:1.1407728839091786 42:24.041630560342615 43:1.0 44:1.4205143432598113 45:23.853720883753127 46:1.0 47:1.530425278407602 48:23.53720459187964 49:2.0 50:1.4916730284204398 51:22.090722034374522 52:2.0 53:1.5310210452589141 54:22.090722034374522 55:1.0 56:1.5367246529014713 57:21.93171219946131 58:1.0 59:0.0034129597712006404 60:21.400934559032695 
-0.1676908340687352 1:1.0 2:1.5383401431689194 3:49.9799959983992 4:1.0 5:1.5364901944258678 6:47.01063709417264 7:1.0 8:1.5348220610136072 9:43.657759905886145 10:1.0 11:1.5604013870184454 12:43.41658669218482 13:1.0 14:1.5634516047981712 15:41.617304093369626 16:1.0 17:1.5516283902632813 18:41.593268686170845 19:1.0 20:1.5466633854181109 21:41.43669871020132 22:1.0 23:1.5400410110919516 24:41.23105625617661 25:2.0 26:1.5071334621998387 27:41.10960958218893 28:1.0 29:1.5569511475225863 30:41.036569057366385 31:1.0 32:1.550186535079939 33:40.45985664828782 34:1.0 35:1.5479552086955057 36:39.81205847478876 37:1.0 38:1.5506361817062928 39:39.56008088970496 40:1.0 41:1.515990606600296 42:37.94733192202055 43:2.0 44:0.0 45:33.83784863137726 46:1.0 47:1.5463850626538949 48:32.7566787083184 49:2.0 50:0.0 51:32.57299494980466 52:1.0 53:1.5368350916590345 54:32.2490309931942 55:1.0 56:1.5531406093621716 57:31.38470965295043 58:1.0 59:1.5363481951247686 60:31.064449134018133 
-0.1495036655858992 1:1.0 2:1.5438080763042257 3:41.43669871020132 4:2.0 5:1.4435476779620005 6:38.07886552931954 7:1.0 8:1.5257793548549015 9:35.510561809129406 10:1.0 11:1.5549552068402814 12:32.984845004941285 13:1.0 14:1.556333936695797 15:32.55764119219941 16:1.0 17:1.5064026575508138 18:31.78049716414141 19:1.0 20:1.543599986876075 21:29.832867780352597 22:1.0 23:1.5403171512257332 24:29.546573405388315 25:1.0 26:1.5578962179636733 27:29.0 28:1.0 29:1.5469144494829608 30:28.442925306655784 31:1.0 32:1.5501401468123277 33:27.294688127912362 34:1.0 35:1.5454813470303108 36:24.839484696748443 37:1.0 38:1.5409108937857758 39:24.698178070456937 40:2.0 41:0.08272515673859358 42:24.351591323771842 43:1.0 44:1.5468308273121807 45:22.80350850198276 46:1.0 47:1.5026365063589027 48:22.02271554554524 49:1.0 50:1.5478158047278396 51:22.02271554554524 52:1.0 53:1.5360671940410782 54:21.633307652783937 55:1.0 56:1.554083723982224 57:21.540659228538015 58:1.0 59:1.5401877247112372 60:21.400934559032695 
-0.23444926878288527 1:1.0 2:1.5023984891646622 3:54.48853090330111 4:2.0 5:0.0 6:51.62363799656123 7:1.0 8:1.5264070816382524 9:47.80167361086848 10:1.0 11:1.5134814054730719 12:47.38143096192854 13:1.0 14:1.5551294375642513 15:41.677331968349414 16:1.0 17:0.9298226047608201 18:40.496913462633174 19:1.0 20:1.5288232101999604 21:39.96248240537617 22:1.0 23:0.4527740969979999 24:36.069377593742864 25:1.0 26:1.5075375342093824 27:35.73513677041127 28:1.0 29:1.552529600009144 30:35.34119409414458 31:1.0 32:1.5357114250127226 33:34.20526275297414 34:1.0 35:1.507234791945115 36:33.97057550292606 37:2.0 38:0.05190904161197568 39:33.54101966249684 40:1.0 41:1.5203533796474735 42:33.421549934136806 43:1.0 44:1.5532347943055993 45:32.31098884280702 46:1.0 47:1.5548376409728657 48:32.01562118716424 49:1.0 50:1.4257244951413406 51:31.240998703626616 52:1.0 53:1.0538499476322953 54:30.886890422961002 55:1.0 56:1.5481537801417429 57:30.0 58:1.0 59:1.48726298225198 60:29.732137494637012 
-0.17736620656386265 1:2.0 2:1.5425620238655107 3:45.880278987817846 4:1.0 5:1.5529375626224282 6:42.15447781671598 7:1.0 8:1.5478985086870256 9:41.7612260356422 10:1.0 11:1.537877842013045 12:38.01315561749642 13:1.0 14:1.5496792813418432 15:36.68787265568828 16:1.0 17:1.5480773791946192 18:34.0 19:1.0 20:1.554607922450992 21:33.37663853655727 22:1.0 23:1.5378795258007532 24:31.016124838541646 25:2.0 26:1.2328696015714584 27:30.886890422961002 28:1.0 29:1.5491377984387413 30:30.066592756745816 31:1.0 32:1.4984425444394396 33:29.410882339705484 34:1.0 35:1.5397997970146566 36:29.017236257093817 37:1.0 38:1.5294947619805808 39:27.65863337187866 40:1.0 41:1.4952228656490163 42:24.698178070456937 43:1.0 44:1.5317764646350218 45:23.021728866442675 46:1.0 47:1.5507028254215887 48:22.47220505424423 49:2.0 50:0.0 51:22.47220505424423 52:1.0 53:1.5385172651130585 54:22.02271554554524 55:1.0 56:1.546703710865842 57:21.2602916254693 58:1.0 59:1.525366089230664 60:19.697715603592208 
-0.15083461816597465 1:1.0 2:1.5520871740597104 3:45.31004303683677 4:1.0 5:1.545294209514477 6:45.0111097397076 7:1.0 8:1.5559428263190473 9:42.95346318982906 10:1.0 11:1.5517877634183908 12:42.1070065428546 13:1.0 14:1.5600132813331729 15:41.773197148410844 16:1.0 17:1.5507325729001247 18:41.48493702538308 19:1.0 20:1.5383829552021806 21:41.19465984809196 22:1.0 23:1.5561863977301045 24:39.96248240537617 25:1.0 26:1.5554992716685137 27:39.11521443121589 28:1.0 29:1.5463917189316354 30:39.05124837953327 31:1.0 32:1.552551720927178 33:39.05124837953327 34:1.0 35:1.5509838518198151 36:39.05124837953327 37:1.0 38:1.5438825001815557 39:36.05551275463989 40:1.0 41:1.5429992765980145 42:35.05709628591621 43:1.0 44:1.5530477725409189 45:33.95585369269929 46:1.0 47:1.5485509782699443 48:33.61547262794322 49:1.0 50:1.5434040083239227 51:31.064449134018133 52:1.0 53:1.5403364655848713 54:31.016124838541646 55:1.0 56:1.5409584476600777 57:30.675723300355934 58:1.0 59:1.5426148517230778 60:30.463092423455635 
-0.25477545507572275 1:1.0 2:1.5552382602068264 3:65.79513659838392 4:1.0 5:1.5536764319277308 6:58.7962583843564 7:1.0 8:1.540471579576595 9:57.245087125446844 10:1.0 11:1.5267359711809054 12:52.15361924162119 13:1.0 14:1.5497676866512573 15:51.62363799656123 16:1.0 17:1.5549639354688638 18:43.93176527297759 19:1.0 20:1.4938235838879765 21:42.720018726587654 22:1.0 23:1.5380299100057235 24:39.05124837953327 25:1.0 26:1.4927888201615038 27:38.48376280978771 28:1.0 29:1.5408215915452446 30:37.73592452822641 31:1.0 32:1.4801683176885312 33:37.36308338453881 34:2.0 35:0.0 36:36.124783736376884 37:2.0 38:0.0 39:35.22782990761707 40:1.0 41:1.4863794677300985 42:34.20526275297414 43:1.0 44:1.5283030866811615 45:34.0147027033899 46:1.0 47:1.5180542441375997 48:33.54101966249684 49:1.0 50:0.11269393303791962 51:31.906112267087632 52:1.0 53:1.5103029730889497 54:30.479501308256342 55:1.0 56:1.5311306007857532 57:30.265491900843113 58:1.0 59:1.5204266205671917 60:29.68164415931166 
-0.10052346346190635 1:1.0 2:1.5325224785350655 3:40.496913462633174 4:1.0 5:1.5300459649689815 6:38.2099463490856 7:1.0 8:1.5704560287200298 9:34.36568055487916 10:1.0 11:1.535529934652804 12:34.058772731852805 13:1.0 14:1.570426930489409 15:32.55764119219941 16:1.0 17:0.0020991393181963042 18:32.38826948140329 19:1.0 20:1.5706959016439153 21:32.2490309931942 22:1.0 23:1.476502847637646 24:31.25699921617557 25:1.0 26:1.5447083202117116 27:31.11269837220809 28:1.0 29:1.570578787007752 30:30.4138126514911 31:1.0 32:1.5627956839843606 33:28.600699292150182 34:1.0 35:8.831653206105282E-4 36:28.178005607210743 37:1.0 38:1.5707074047997764 39:28.0178514522438 40:1.0 41:0.0022843300579522808 42:27.0 43:1.0 44:1.569109925510726 45:26.019223662515376 46:1.0 47:1.5707168173729038 48:26.0 49:1.0 50:1.5688943944144003 51:25.612496949731394 52:1.0 53:1.5679628342523402 54:24.0 55:1.0 56:1.5701220938382041 57:23.53720459187964 58:1.0 59:0.0016568599552030437 60:23.53720459187964 
-0.14254743315066132 1:1.0 2:1.5427297518951453 3:45.803929962395145 4:1.0 5:1.5430247889060653 6:43.01162633521314 7:1.0 8:1.5448380919375317 9:40.45985664828782 10:1.0 11:1.5294316836948507 12:38.01315561749642 13:1.0 14:1.5703152037266466 15:36.05551275463989 16:1.0 17:1.5698972316595121 18:35.0 19:1.0 20:1.5703377742179738 21:34.438350715445125 22:1.0 23:1.5399368803369493 24:33.24154027718932 25:1.0 26:1.5703981271572212 27:33.06055050963308 28:1.0 29:1.5697902597704783 30:32.802438933713454 31:1.0 32:1.57026916452597 33:31.016124838541646 34:1.0 35:1.5361142146962556 36:31.016124838541646 37:1.0 38:1.5673020206621684 39:29.732137494637012 40:1.0 41:1.5691565175220024 42:26.476404589747453 43:2.0 44:1.5033169975674696 45:24.839484696748443 46:2.0 47:1.541684410982215 48:24.351591323771842 49:2.0 50:1.4967195136741522 51:24.08318915758459 52:2.0 53:1.566837836323382 54:24.08318915758459 55:1.0 56:1.5257997176289453 57:24.020824298928627 58:1.0 59:1.5686800638686114 60:23.600847442411894 
-0.7063166605499891 1:2.0 2:1.5695246479057963 3:36.069377593742864 4:1.0 5:8.567396429807337E-4 6:33.24154027718932 7:1.0 8:0.001239863156784961 9:31.016124838541646 10:1.0 11:1.5501719485442553 12:27.586228448267445 13:1.0 14:1.5651818300470022 15:26.40075756488817 16:1.0 17:1.542411568461569 18:26.0 19:1.0 20:1.5642118294324303 21:25.059928172283335 22:1.0 23:1.5700808058338125 24:24.186773244895647 25:1.0 26:1.5447605895301524 27:23.853720883753127 28:1.0 29:1.5636202089066136 30:23.600847442411894 31:1.0 32:1.5060771312748302 33:23.345235059857504 34:1.0 35:1.5695656584621345 36:23.194827009486403 37:2.0 38:1.4380312388348713 39:23.021728866442675 40:1.0 41:1.5698246792833945 42:22.360679774997898 43:1.0 44:6.005848103695828E-4 45:22.360679774997898 46:1.0 47:0.001245006738371973 48:22.02271554554524 49:1.0 50:1.5531078646002539 51:21.95449840010015 52:1.0 53:0.009696858236865275 54:21.633307652783937 55:1.0 56:1.5318284020885289 57:21.540659228538015 58:1.0 59:0.004887395711752924 60:21.213203435596427 
-0.13268070399059687 1:2.0 2:1.4251166316020034 3:47.4236228055175 4:2.0 5:0.0 6:42.44997055358225 7:1.0 8:0.011745689371992673 9:37.0 10:1.0 11:0.016232377725845924 12:33.24154027718932 13:2.0 14:1.5306367276402029 15:32.802438933713454 16:1.0 17:1.5678317051209287 18:32.449961479175904 19:1.0 20:1.5478660482213582 21:30.59411708155671 22:1.0 23:0.0081530374993577 24:30.0 25:1.0 26:1.5680930968548887 27:29.120439557122072 28:1.0 29:1.5349464269626476 30:28.635642126552707 31:1.0 32:1.546727475390994 33:28.442925306655784 34:1.0 35:0.0660318403627853 36:27.730849247724095 37:1.0 38:1.5248008394579462 39:27.459060435491963 40:1.0 41:1.5184257175828597 42:27.073972741361768 43:1.0 44:1.5699873047211095 45:26.627053911388696 46:1.0 47:1.5250087470841573 48:25.495097567963924 49:1.0 50:1.5550788472145687 51:25.0 52:1.0 53:1.5396630979647834 54:24.413111231467404 55:1.0 56:0.014404716349395835 57:23.0 58:1.0 59:1.5569679484161123 60:22.80350850198276 
-0.4185466467469534 1:2.0 2:0.0 3:33.97057550292606 4:2.0 5:1.5697371385721717 6:26.1725046566048 7:1.0 8:1.570586087250385 9:24.041630560342615 10:1.0 11:1.5704378967254315 12:23.021728866442675 13:1.0 14:1.475195268268148 15:22.80350850198276 16:1.0 17:1.5698257770472916 18:22.20360331117452 19:2.0 20:1.4849850487077272 21:21.633307652783937 22:1.0 23:1.5686364075176549 24:21.02379604162864 25:1.0 26:1.5706757017069193 27:20.615528128088304 28:1.0 29:0.0143007975295435 30:19.924858845171276 31:1.0 32:1.4307653607395558 33:19.72308292331602 34:1.0 35:1.5702114306873811 36:19.6468827043885 37:1.0 38:1.5706332680983535 39:19.313207915827967 40:1.0 41:1.569967055677734 42:19.235384061671343 43:1.0 44:1.5379378606970302 45:18.601075237738275 46:1.0 47:1.5001451254573466 48:18.439088914585774 49:1.0 50:0.004182249072686068 51:18.384776310850235 52:2.0 53:0.006562542048899662 54:18.384776310850235 55:1.0 56:1.5676868187522206 57:18.110770276274835 58:1.0 59:1.5689393671421092 60:18.027756377319946 
-0.3938665619919012 1:2.0 2:0.0 3:59.20304046246274 4:2.0 5:1.5239956143402864 6:40.24922359499622 7:1.0 8:1.4356962875261914 9:39.05124837953327 10:1.0 11:1.4521962789833602 12:37.8549864614954 13:1.0 14:1.4337032778552317 15:31.400636936215164 16:1.0 17:1.5393685371396428 18:30.066592756745816 19:1.0 20:1.555418138392732 21:28.178005607210743 22:1.0 23:1.5247953453499536 24:27.892651361962706 25:2.0 26:1.5278898041589997 27:27.018512172212592 28:1.0 29:9.672752861043722E-4 30:26.476404589747453 31:2.0 32:1.567410423183639 33:26.40075756488817 34:2.0 35:1.5688332182615108 36:26.019223662515376 37:1.0 38:1.5695954941431531 39:25.0 40:1.0 41:0.6987264594502292 42:24.351591323771842 43:1.0 44:1.5698070282082863 45:24.08318915758459 46:1.0 47:1.5641720425640582 48:23.769728648009426 49:1.0 50:1.555406816623129 51:23.259406699226016 52:1.0 53:9.082058959193728E-4 54:22.847319317591726 55:1.0 56:1.5347397836625014 57:22.561028345356956 58:1.0 59:1.564325009584909 60:22.360679774997898 
-0.04180832339854152 1:2.0 2:0.0 3:41.86884283091664 4:2.0 5:0.0 6:40.80441152620633 7:1.0 8:1.5259419964537386 9:39.20459156782532 10:1.0 11:1.2766039619534855 12:36.359317925395686 13:1.0 14:1.5693503233407018 15:32.802438933713454 16:1.0 17:1.5265878814203035 18:31.38470965295043 19:1.0 20:1.570723632595242 21:31.064449134018133 22:1.0 23:1.5691563373064785 24:31.016124838541646 25:1.0 26:1.5686306608898468 27:30.610455730027933 28:1.0 29:1.5707658388808095 30:29.410882339705484 31:1.0 32:1.5707544322999476 33:28.30194339616981 34:1.0 35:1.4735171589936455 36:27.65863337187866 37:1.0 38:1.5474414181556277 39:27.294688127912362 40:1.0 41:1.5707623420778922 42:27.202941017470888 43:1.0 44:1.570749955582327 45:26.076809620810597 46:1.0 47:1.5707649979923841 48:25.553864678361276 49:2.0 50:0.009623284811767796 51:25.0 52:1.0 53:1.567983402294707 54:24.698178070456937 55:1.0 56:1.5702156070960345 57:23.706539182259394 58:1.0 59:1.569150788943802 60:23.53720459187964 
-0.4538860980397517 1:1.0 2:1.4283855703726915 3:36.069377593742864 4:1.0 5:1.5087350540727391 6:27.730849247724095 7:1.0 8:1.5681522007373978 9:26.40075756488817 10:1.0 11:1.5560760827837938 12:25.238858928247925 13:1.0 14:1.5663539204852148 15:24.413111231467404 16:2.0 17:1.5609689254882357 18:24.020824298928627 19:1.0 20:1.5667793044266425 21:23.853720883753127 22:1.0 23:1.5703518442062376 24:23.430749027719962 25:1.0 26:1.5431162966807408 27:23.345235059857504 28:1.0 29:0.005901264717024671 30:23.323807579381203 31:1.0 32:0.13897235167290642 33:23.021728866442675 34:2.0 35:1.5699963502922731 36:23.0 37:1.0 38:0.019476085338639287 39:22.847319317591726 40:1.0 41:1.5176555413204134 42:22.561028345356956 43:1.0 44:1.5493171219595463 45:22.360679774997898 46:1.0 47:0.0015430481300026271 48:22.360679774997898 49:2.0 50:0.0023187160462714994 51:22.090722034374522 52:1.0 53:1.564666906295037 54:22.090722034374522 55:1.0 56:1.5677793444004846 57:21.633307652783937 58:1.0 59:1.5702740772017485 60:21.587033144922902 
