svm_type c_svc
kernel_type rbf
gamma 0.016666666666666666
nr_class 2
total_sv 18
rho -0.20478891054225082
label 1 -1
nr_sv 8 10
SV
1.0 1:1.0 2:1.5490259052838844 3:41.773197148410844 4:1.0 5:1.5270652161802474 6:40.36087214122113 7:1.0 8:1.55746990721569 9:39.05124837953327 10:1.0 11:1.5573954631304514 12:38.600518131237564 13:1.0 14:1.5554378679406085 15:36.89173349139343 16:1.0 17:1.5569081929664816 18:34.132096331752024 19:1.0 20:1.543645922803006 21:34.058772731852805 22:1.0 23:1.4488583709019178 24:27.65863337187866 25:1.0 26:0.18004515186035547 27:23.323807579381203 28:1.0 29:1.5590207512034084 30:23.08679276123039 31:2.0 32:1.4227127826027794 33:23.0 34:2.0 35:1.526309448779796 36:23.0 37:1.0 38:1.5245930407713668 39:22.825424421026653 40:1.0 41:1.570071072719554 42:22.02271554554524 43:1.0 44:1.5493539191065429 45:21.93171219946131 46:1.0 47:1.5288690239859368 48:21.540659228538015 49:1.0 50:1.5244406903198853 51:20.8806130178211 52:1.0 53:0.00328117314264975 54:20.518284528683193 55:1.0 56:1.5549188547796418 57:20.248456731316587 58:1.0 59:1.5226456828931147 60:20.248456731316587 
1.0 1:2.0 2:0.0 3:74.81310045707235 4:1.0 5:1.549188354997479 6:41.773197148410844 7:1.0 8:1.5281412012100444 9:40.36087214122113 10:1.0 11:1.557363213584873 12:39.05124837953327 13:1.0 14:1.5573017875111441 15:38.600518131237564 16:1.0 17:1.5553485939857543 18:36.89173349139343 19:1.0 20:1.5569004042766557 21:34.132096331752024 22:1.0 23:1.5439541024340904 24:34.058772731852805 25:1.0 26:1.4462960849543292 27:27.65863337187866 28:1.0 29:0.18038338353860842 30:23.323807579381203 31:1.0 32:1.5589684402697814 33:23.08679276123039 34:2.0 35:1.525663595131041 36:23.0 37:2.0 38:1.4227882512459433 39:23.0 40:1.0 41:1.5237495620187873 42:22.825424421026653 43:1.0 44:1.5700906998443867 45:22.02271554554524 46:1.0 47:1.5494071252988584 48:21.93171219946131 49:1.0 50:1.527725996491657 51:21.540659228538015 52:1.0 53:1.523401004273802 54:20.8806130178211 55:1.0 56:0.0033036921671041595 57:20.518284528683193 58:1.0 59:1.522283411283346 60:20.248456731316587 
0.7963945654192464 1:2.0 2:0.0 3:70.45565981523414 4:2.0 5:1.529583729503561 6:42.1070065428546 7:1.0 8:1.5508614889885108 9:30.066592756745816 10:1.0 11:0.5489000736006696 12:25.495097567963924 13:1.0 14:1.4686781398470459 15:25.238858928247925 16:1.0 17:1.5193335986567578 18:24.020824298928627 19:1.0 20:1.5341752370230148 21:23.345235059857504 22:1.0 23:1.5415357361016548 24:23.08679276123039 25:2.0 26:1.570316463095841 27:22.80350850198276 28:1.0 29:1.535972009519215 30:22.02271554554524 31:2.0 32:1.5699050054916388 33:22.02271554554524 34:1.0 35:0.08077045177146731 36:21.400934559032695 37:1.0 38:1.536712798473088 39:20.615528128088304 40:2.0 41:1.5201146000448973 42:20.024984394500787 43:1.0 44:1.5123655629115835 45:19.6468827043885 46:1.0 47:0.2533648358558709 48:19.209372712298546 49:1.0 50:1.538102612738295 51:18.867962264113206 52:1.0 53:1.5001515113506578 54:18.110770276274835 55:1.0 56:0.0039376997359437125 57:18.027756377319946 58:1.0 59:1.522926589726236 60:17.46424919657298 
0.7939334817522437 1:1.0 2:1.5400564556827312 3:36.22154055254967 4:1.0 5:1.5432920402936978 6:34.48187929913333 7:1.0 8:1.5279716762883193 9:31.575306807693888 10:1.0 11:1.537546417135168 12:28.160255680657446 13:1.0 14:1.5432102325610055 15:27.018512172212592 16:1.0 17:1.5371973666047987 18:25.495097567963924 19:1.0 20:1.520637931656572 21:24.020824298928627 22:1.0 23:1.5402829302085763 24:23.53720459187964 25:1.0 26:0.005779406234931256 27:22.80350850198276 28:1.0 29:1.5461050269841679 30:22.090722034374522 31:1.0 32:1.543072138571792 33:21.587033144922902 34:1.0 35:1.5302254288133148 36:21.02379604162864 37:1.0 38:1.5694688636514167 39:20.615528128088304 40:1.0 41:1.477795027231302 42:20.024984394500787 43:1.0 44:0.009510633537712254 45:19.4164878389476 46:2.0 47:1.51006115631332 48:19.0 49:2.0 50:1.5301317752218235 51:18.384776310850235 52:1.0 53:0.10938837947753892 54:17.804493814764857 55:1.0 56:0.01504409091114775 57:17.69180601295413 58:1.0 59:1.50327443847748 60:17.08800749063506 
0.7941300727525314 1:2.0 2:1.4354217855745262 3:40.024992192379 4:2.0 5:1.529152185524036 6:38.27531841800928 7:1.0 8:1.5434990287902053 9:35.34119409414458 10:1.0 11:1.5473917629509804 12:32.984845004941285 13:1.0 14:1.522991975215651 15:31.144823004794873 16:1.0 17:0.0067673361581825145 18:31.144823004794873 19:1.0 20:1.484343665796419 21:31.064449134018133 22:1.0 23:1.5307862009711102 24:30.01666203960727 25:1.0 26:0.28183579005256654 27:29.614185789921695 28:1.0 29:0.0025072679470147063 30:29.017236257093817 31:1.0 32:1.336827321780031 33:28.30194339616981 34:1.0 35:1.5661093550948177 36:27.202941017470888 37:1.0 38:1.5642180771903373 39:26.92582403567252 40:1.0 41:1.4984590552338302 42:25.298221281347036 43:2.0 44:1.3883428338716115 45:25.179356624028344 46:1.0 47:1.5559969315784137 48:25.0 49:1.0 50:1.5338221186701693 51:24.758836806279895 52:1.0 53:1.5075336041067429 54:24.596747752497688 55:1.0 56:1.549402768435426 57:24.351591323771842 58:1.0 59:1.5632769485493403 60:24.0 
0.9918287876057138 1:1.0 2:1.535637711072053 3:44.553338819890925 4:1.0 5:1.5419933739862257 6:39.05124837953327 7:1.0 8:1.530594728510492 9:39.01281840626232 10:2.0 11:0.3277586203672885 12:37.0 13:1.0 14:1.5354510701036106 15:33.015148038438355 16:1.0 17:1.5325521738227437 18:31.304951684997057 19:1.0 20:1.5100935035790772 21:26.419689627245813 22:1.0 23:1.5178857337650442 24:25.298221281347036 25:1.0 26:1.5139359227247182 27:25.0 28:1.0 29:1.5489089985854503 30:24.515301344262525 31:1.0 32:1.1601200185391587 33:24.020824298928627 34:1.0 35:1.5515110696111574 36:23.53720459187964 37:1.0 38:1.3448733526927068 39:23.021728866442675 40:1.0 41:1.5420269609852557 42:22.20360331117452 43:1.0 44:1.546280973066644 45:21.95449840010015 46:1.0 47:1.564278252178746 48:20.808652046684813 49:1.0 50:1.540386819199997 51:20.615528128088304 52:1.0 53:1.552949894988752 54:20.0 55:1.0 56:1.5507038724559656 57:19.697715603592208 58:1.0 59:1.5518908534255023 60:19.4164878389476 
0.7965835695858772 1:2.0 2:0.0 3:58.008620049092706 4:1.0 5:1.5351760619633246 6:44.553338819890925 7:1.0 8:1.541403584838367 9:39.05124837953327 10:1.0 11:1.5308813642052792 12:39.01281840626232 13:2.0 14:0.32269934766533304 15:37.0 16:1.0 17:1.5356652200384115 18:33.015148038438355 19:1.0 20:1.5321052917891906 21:31.304951684997057 22:1.0 23:1.5094247779246959 24:26.419689627245813 25:1.0 26:1.5161538993321109 27:25.298221281347036 28:1.0 29:1.511850501492833 30:25.0 31:1.0 32:1.548781689539163 33:24.515301344262525 34:1.0 35:1.1700185282754696 36:24.020824298928627 37:1.0 38:1.5517513312364377 39:23.53720459187964 40:1.0 41:1.541266830923953 42:22.20360331117452 43:1.0 44:1.564237348936958 45:20.808652046684813 46:1.0 47:1.5406466797545173 48:20.615528128088304 49:1.0 50:1.5509711859299373 51:19.697715603592208 52:1.0 53:1.551959472785658 54:19.4164878389476 55:1.0 56:1.537545188186269 57:19.209372712298546 58:1.0 59:1.5698090707034302 60:19.1049731745428 
0.7947312178769705 1:2.0 2:0.0 3:57.77542730261716 4:1.0 5:0.008170695069271105 6:28.861739379323623 7:2.0 8:1.5426940743191198 9:28.442925306655784 10:2.0 11:0.28885692791517553 12:28.442925306655784 13:1.0 14:1.5622874022445679 15:25.495097567963924 16:1.0 17:0.04380713561164889 18:23.323807579381203 19:1.0 20:1.565940464100023 21:21.400934559032695 22:1.0 23:1.5362166177812173 24:19.72308292331602 25:2.0 26:1.5611893198650364 27:19.313207915827967 28:2.0 29:0.23769710362907406 30:19.313207915827967 31:2.0 32:1.5403117866384723 33:18.439088914585774 34:1.0 35:1.5393917997536628 36:18.439088914585774 37:2.0 38:0.06033471270825498 39:18.35755975068582 40:1.0 41:0.003955589878214175 42:17.804493814764857 43:1.0 44:0.01702923848433452 45:17.69180601295413 46:1.0 47:0.006687364524627815 48:17.26267650163207 49:1.0 50:1.540265241595273 51:16.64331697709324 52:1.0 53:1.5581031795069973 54:16.55294535724685 55:1.0 56:0.8783144192896962 57:16.492422502470642 58:1.0 59:1.5558331304821895 60:15.811388300841896 
-0.573938217883689 1:1.0 2:1.5490259052838844 3:41.773197148410844 4:1.0 5:1.5270652161802474 6:40.36087214122113 7:1.0 8:1.55746990721569 9:39.05124837953327 10:1.0 11:1.5573954631304514 12:38.600518131237564 13:1.0 14:1.5554378679406085 15:36.89173349139343 16:1.0 17:1.5569081929664816 18:34.132096331752024 19:1.0 20:1.543645922803006 21:34.058772731852805 22:1.0 23:1.4488583709019178 24:27.65863337187866 25:1.0 26:0.18004515186035547 27:23.323807579381203 28:1.0 29:1.5590207512034084 30:23.08679276123039 31:2.0 32:1.4227127826027794 33:23.0 34:2.0 35:1.526309448779796 36:23.0 37:1.0 38:1.5245930407713668 39:22.825424421026653 40:1.0 41:1.570071072719554 42:22.02271554554524 43:1.0 44:1.5493539191065429 45:21.93171219946131 46:1.0 47:1.5288690239859368 48:21.540659228538015 49:1.0 50:1.5244406903198853 51:20.8806130178211 52:1.0 53:0.00328117314264975 54:20.518284528683193 55:1.0 56:1.5549188547796418 57:20.248456731316587 58:1.0 59:1.5226456828931147 60:20.248456731316587 
-0.24839639034039981 1:2.0 2:0.0 3:74.81310045707235 4:1.0 5:1.549188354997479 6:41.773197148410844 7:1.0 8:1.5281412012100444 9:40.36087214122113 10:1.0 11:1.557363213584873 12:39.05124837953327 13:1.0 14:1.5573017875111441 15:38.600518131237564 16:1.0 17:1.5553485939857543 18:36.89173349139343 19:1.0 20:1.5569004042766557 21:34.132096331752024 22:1.0 23:1.5439541024340904 24:34.058772731852805 25:1.0 26:1.4462960849543292 27:27.65863337187866 28:1.0 29:0.18038338353860842 30:23.323807579381203 31:1.0 32:1.5589684402697814 33:23.08679276123039 34:2.0 35:1.525663595131041 36:23.0 37:2.0 38:1.4227882512459433 39:23.0 40:1.0 41:1.5237495620187873 42:22.825424421026653 43:1.0 44:1.5700906998443867 45:22.02271554554524 46:1.0 47:1.5494071252988584 48:21.93171219946131 49:1.0 50:1.527725996491657 51:21.540659228538015 52:1.0 53:1.523401004273802 54:20.8806130178211 55:1.0 56:0.0033036921671041595 57:20.518284528683193 58:1.0 59:1.522283411283346 60:20.248456731316587 
-1.0 1:1.0 2:1.5490259052838844 3:41.773197148410844 4:1.0 5:1.5270652161802474 6:40.36087214122113 7:1.0 8:1.55746990721569 9:39.05124837953327 10:1.0 11:1.5573954631304514 12:38.600518131237564 13:1.0 14:1.5554378679406085 15:36.89173349139343 16:1.0 17:1.5569081929664816 18:34.132096331752024 19:1.0 20:1.543645922803006 21:34.058772731852805 22:1.0 23:1.4488583709019178 24:27.65863337187866 25:1.0 26:0.18004515186035547 27:23.323807579381203 28:1.0 29:1.5590207512034084 30:23.08679276123039 31:2.0 32:1.4227127826027794 33:23.0 34:2.0 35:1.526309448779796 36:23.0 37:1.0 38:1.5245930407713668 39:22.825424421026653 40:1.0 41:1.570071072719554 42:22.02271554554524 43:1.0 44:1.5493539191065429 45:21.93171219946131 46:1.0 47:1.5288690239859368 48:21.540659228538015 49:1.0 50:1.5244406903198853 51:20.8806130178211 52:1.0 53:0.00328117314264975 54:20.518284528683193 55:1.0 56:1.5549188547796418 57:20.248456731316587 58:1.0 59:1.5226456828931147 60:20.248456731316587 
-1.0 1:2.0 2:0.0 3:74.81310045707235 4:1.0 5:1.549188354997479 6:41.773197148410844 7:1.0 8:1.5281412012100444 9:40.36087214122113 10:1.0 11:1.557363213584873 12:39.05124837953327 13:1.0 14:1.5573017875111441 15:38.600518131237564 16:1.0 17:1.5553485939857543 18:36.89173349139343 19:1.0 20:1.5569004042766557 21:34.132096331752024 22:1.0 23:1.5439541024340904 24:34.058772731852805 25:1.0 26:1.4462960849543292 27:27.65863337187866 28:1.0 29:0.18038338353860842 30:23.323807579381203 31:1.0 32:1.5589684402697814 33:23.08679276123039 34:2.0 35:1.525663595131041 36:23.0 37:2.0 38:1.4227882512459433 39:23.0 40:1.0 41:1.5237495620187873 42:22.825424421026653 43:1.0 44:1.5700906998443867 45:22.02271554554524 46:1.0 47:1.5494071252988584 48:21.93171219946131 49:1.0 50:1.527725996491657 51:21.540659228538015 52:1.0 53:1.523401004273802 54:20.8806130178211 55:1.0 56:0.0033036921671041595 57:20.518284528683193 58:1.0 59:1.522283411283346 60:20.248456731316587 
-0.5036468511492179 1:2.0 2:0.0 3:51.03920062069938 4:2.0 5:0.0 6:47.80167361086848 7:1.0 8:1.5558163918435244 9:32.69556544854363 10:1.0 11:1.557052414082793 12:31.064449134018133 13:1.0 14:1.5392507393145245 15:27.51363298439521 16:1.0 17:1.5414393403109496 18:26.419689627245813 19:1.0 20:1.5463108441220126 21:26.248809496813376 22:1.0 23:1.5704260955336204 24:25.495097567963924 25:1.0 26:1.5255513223863582 27:25.079872407968907 28:2.0 29:1.56992767027959 30:24.73863375370596 31:1.0 32:1.5496274358930124 33:24.041630560342615 34:1.0 35:1.5450155848383942 36:22.825424421026653 37:1.0 38:1.569605865535333 39:22.80350850198276 40:1.0 41:1.569178403010177 42:21.93171219946131 43:1.0 44:1.5117493071031123 45:21.587033144922902 46:1.0 47:1.5559432061804435 48:20.12461179749811 49:1.0 50:1.5498503956911676 51:19.6468827043885 52:1.0 53:1.566843471873698 54:19.6468827043885 55:1.0 56:0.0017875277837747095 57:19.0 58:1.0 59:0.0031301995861279085 60:18.601075237738275 
-0.19894653237043164 1:2.0 2:0.0 3:58.249463516842795 4:2.0 5:1.5706744141805025 6:37.57658845611187 7:1.0 8:1.5418687182065371 9:27.16615541441225 10:1.0 11:1.568468420773265 12:26.92582403567252 13:1.0 14:1.5688959136881995 15:26.832815729997478 16:2.0 17:1.5596468914184611 18:26.1725046566048 19:1.0 20:1.5685056824672985 21:26.019223662515376 22:1.0 23:1.5686154941605581 24:25.495097567963924 25:1.0 26:1.5685448759195952 27:25.019992006393608 28:1.0 29:1.5696897578559545 30:25.0 31:1.0 32:1.568235226029693 33:24.758836806279895 34:1.0 35:1.5576822034442435 36:24.698178070456937 37:1.0 38:1.5695632777351691 39:24.331050121192877 40:1.0 41:1.5703508501765222 42:24.20743687382041 43:1.0 44:1.568945551508973 45:24.166091947189145 46:1.0 47:1.570118285592032 48:23.345235059857504 49:1.0 50:0.024617818693057496 51:23.194827009486403 52:1.0 53:1.5589169724992324 54:22.847319317591726 55:1.0 56:1.5700826752927053 57:22.80350850198276 58:1.0 59:1.569907927061121 60:22.20360331117452 
-0.7803184902535705 1:1.0 2:1.5490259052838844 3:41.773197148410844 4:1.0 5:1.5270652161802474 6:40.36087214122113 7:1.0 8:1.55746990721569 9:39.05124837953327 10:1.0 11:1.5573954631304514 12:38.600518131237564 13:1.0 14:1.5554378679406085 15:36.89173349139343 16:1.0 17:1.5569081929664816 18:34.132096331752024 19:1.0 20:1.543645922803006 21:34.058772731852805 22:1.0 23:1.4488583709019178 24:27.65863337187866 25:1.0 26:0.18004515186035547 27:23.323807579381203 28:1.0 29:1.5590207512034084 30:23.08679276123039 31:2.0 32:1.4227127826027794 33:23.0 34:2.0 35:1.526309448779796 36:23.0 37:1.0 38:1.5245930407713668 39:22.825424421026653 40:1.0 41:1.570071072719554 42:22.02271554554524 43:1.0 44:1.5493539191065429 45:21.93171219946131 46:1.0 47:1.5288690239859368 48:21.540659228538015 49:1.0 50:1.5244406903198853 51:20.8806130178211 52:1.0 53:0.00328117314264975 54:20.518284528683193 55:1.0 56:1.5549188547796418 57:20.248456731316587 58:1.0 59:1.5226456828931147 60:20.248456731316587 
-0.9573826011014485 1:2.0 2:0.0 3:74.81310045707235 4:1.0 5:1.549188354997479 6:41.773197148410844 7:1.0 8:1.5281412012100444 9:40.36087214122113 10:1.0 11:1.557363213584873 12:39.05124837953327 13:1.0 14:1.5573017875111441 15:38.600518131237564 16:1.0 17:1.5553485939857543 18:36.89173349139343 19:1.0 20:1.5569004042766557 21:34.132096331752024 22:1.0 23:1.5439541024340904 24:34.058772731852805 25:1.0 26:1.4462960849543292 27:27.65863337187866 28:1.0 29:0.18038338353860842 30:23.323807579381203 31:1.0 32:1.5589684402697814 33:23.08679276123039 34:2.0 35:1.525663595131041 36:23.0 37:2.0 38:1.4227882512459433 39:23.0 40:1.0 41:1.5237495620187873 42:22.825424421026653 43:1.0 44:1.5700906998443867 45:22.02271554554524 46:1.0 47:1.5494071252988584 48:21.93171219946131 49:1.0 50:1.527725996491657 51:21.540659228538015 52:1.0 53:1.523401004273802 54:20.8806130178211 55:1.0 56:0.0033036921671041595 57:20.518284528683193 58:1.0 59:1.522283411283346 60:20.248456731316587 
-0.7069020041688048 1:2.0 2:0.0 3:51.03920062069938 4:2.0 5:0.0 6:47.80167361086848 7:1.0 8:1.5558163918435244 9:32.69556544854363 10:1.0 11:1.557052414082793 12:31.064449134018133 13:1.0 14:1.5392507393145245 15:27.51363298439521 16:1.0 17:1.5414393403109496 18:26.419689627245813 19:1.0 20:1.5463108441220126 21:26.248809496813376 22:1.0 23:1.5704260955336204 24:25.495097567963924 25:1.0 26:1.5255513223863582 27:25.079872407968907 28:2.0 29:1.56992767027959 30:24.73863375370596 31:1.0 32:1.5496274358930124 33:24.041630560342615 34:1.0 35:1.5450155848383942 36:22.825424421026653 37:1.0 38:1.569605865535333 39:22.80350850198276 40:1.0 41:1.569178403010177 42:21.93171219946131 43:1.0 44:1.5117493071031123 45:21.587033144922902 46:1.0 47:1.5559432061804435 48:20.12461179749811 49:1.0 50:1.5498503956911676 51:19.6468827043885 52:1.0 53:1.566843471873698 54:19.6468827043885 55:1.0 56:0.0017875277837747095 57:19.0 58:1.0 59:0.0031301995861279085 60:18.601075237738275 
-0.9980706077250209 1:2.0 2:0.0 3:58.249463516842795 4:2.0 5:1.5706744141805025 6:37.57658845611187 7:1.0 8:1.5418687182065371 9:27.16615541441225 10:1.0 11:1.568468420773265 12:26.92582403567252 13:1.0 14:1.5688959136881995 15:26.832815729997478 16:2.0 17:1.5596468914184611 18:26.1725046566048 19:1.0 20:1.5685056824672985 21:26.019223662515376 22:1.0 23:1.5686154941605581 24:25.495097567963924 25:1.0 26:1.5685448759195952 27:25.019992006393608 28:1.0 29:1.5696897578559545 30:25.0 31:1.0 32:1.568235226029693 33:24.758836806279895 34:1.0 35:1.5576822034442435 36:24.698178070456937 37:1.0 38:1.5695632777351691 39:24.331050121192877 40:1.0 41:1.5703508501765222 42:24.20743687382041 43:1.0 44:1.568945551508973 45:24.166091947189145 46:1.0 47:1.570118285592032 48:23.345235059857504 49:1.0 50:0.024617818693057496 51:23.194827009486403 52:1.0 53:1.5589169724992324 54:22.847319317591726 55:1.0 56:1.5700826752927053 57:22.80350850198276 58:1.0 59:1.569907927061121 60:22.20360331117452 
