svm_type c_svc
kernel_type rbf
gamma 0.022222222222222223
nr_class 2
total_sv 18
rho -0.16811311072504884
label 1 -1
nr_sv 8 10
SV
1.0 1:2.0 2:0.0 3:46.861498055439924 4:2.0 5:0.0 6:39.21734310225516 7:1.0 8:0.007668473155930556 9:38.2099463490856 10:2.0 11:0.15169428859776315 12:38.01315561749642 13:1.0 14:0.00309752273083031 15:37.107950630558946 16:1.0 17:0.0037106162298329 18:37.0 19:2.0 20:1.4317669881621278 21:32.57299494980466 22:1.0 23:0.007680863162734011 24:32.14031735997639 25:1.0 26:0.00595155159284514 27:29.614185789921695 28:2.0 29:1.5669788515007774 30:28.844410203711913 31:2.0 32:1.5439427093999258 33:27.65863337187866 34:1.0 35:0.06970156912606684 36:26.40075756488817 37:1.0 38:0.0020108588298568004 39:25.709920264364882 40:1.0 41:1.5085020937936773 42:25.495097567963924 43:1.0 44:0.00542636109512224 45:25.317977802344327 
1.0 1:2.0 2:1.2132512441787218 3:41.012193308819754 4:1.0 5:1.5230553044046626 6:36.49657518178932 7:1.0 8:1.5013323898297302 9:32.55764119219941 10:1.0 11:1.5367279149471995 12:32.01562118716424 13:1.0 14:1.4936546498601617 15:31.78049716414141 16:2.0 17:1.3886548859439476 18:31.38470965295043 19:1.0 20:1.5281537040124316 21:31.240998703626616 22:1.0 23:1.549781249215997 24:31.064449134018133 25:2.0 26:0.0 27:30.528675044947494 28:1.0 29:1.5274408792295944 30:30.265491900843113 31:1.0 32:1.4903946717476348 33:30.083217912982647 34:1.0 35:1.482350832272132 36:29.154759474226502 37:1.0 38:1.5339928248493333 39:27.784887978899608 40:2.0 41:1.4995283345489088 42:27.459060435491963 43:1.0 44:1.545977827498416 45:27.202941017470888 
0.6742739491114261 1:1.0 2:1.5240484908841414 3:48.25971404805462 4:1.0 5:1.5000844025462503 6:43.829214001622255 7:1.0 8:1.5004944574685621 9:41.88078318274385 10:1.0 11:1.5176040774079553 12:41.773197148410844 13:1.0 14:1.5320271936308822 15:41.677331968349414 16:2.0 17:1.4627136008144177 18:41.593268686170845 19:1.0 20:1.5330960972506207 21:41.10960958218893 22:1.0 23:1.5353836772583258 24:39.20459156782532 25:2.0 26:1.2352115433203026 27:38.47076812334269 28:1.0 29:1.5314222338918206 30:37.33630940518894 31:1.0 32:1.5334114057394377 33:36.89173349139343 34:1.0 35:1.54359011930346 36:35.84689665786984 37:1.0 38:1.4864366875681863 39:35.4682957019364 40:1.0 41:1.5322545293389211 42:35.22782990761707 43:1.0 44:1.5396257997750562 45:35.0 
0.7073186877253324 1:1.0 2:1.5381874539949314 3:45.60701700396552 4:1.0 5:1.5211021813311654 6:45.17742799230607 7:1.0 8:1.5239941932561298 9:44.40720662234904 10:1.0 11:1.521901152931037 12:43.174066289845804 13:1.0 14:1.529668981810976 15:41.677331968349414 16:1.0 17:1.238118090726485 18:40.52159917870962 19:1.0 20:1.5308184688123734 21:40.22437072223753 22:1.0 23:1.4602619512526451 24:39.05124837953327 25:1.0 26:1.5291743595369534 27:38.27531841800928 28:1.0 29:1.1325596963311975 30:37.12142238654117 31:2.0 32:1.292990609792994 33:34.36568055487916 34:1.0 35:1.5197990947816091 36:34.0147027033899 37:2.0 38:0.0 39:31.76476034853718 40:1.0 41:1.4294845411188357 42:31.240998703626616 43:1.0 44:0.6479946830373814 45:30.265491900843113 
0.7860101873801477 1:1.0 2:1.5254321746924608 3:53.75872022286245 4:1.0 5:1.530489150771195 6:47.20169488482379 7:1.0 8:0.0014702728309402447 9:46.61544808322666 10:1.0 11:1.5240352358431997 12:46.57252408878007 13:1.0 14:0.0017634507659830758 15:42.95346318982906 16:1.0 17:1.5296189512198906 18:41.036569057366385 19:1.0 20:1.5280167127763908 21:37.0 22:1.0 23:1.4721703396348829 24:36.49657518178932 25:2.0 26:1.5697207317066393 27:36.22154055254967 28:1.0 29:1.5334593215555714 30:35.608987629529715 31:1.0 32:9.293300901322364E-4 33:33.24154027718932 34:1.0 35:0.003960698350666624 36:32.526911934581186 37:1.0 38:1.4565704945045068 39:31.144823004794873 40:1.0 41:1.5410320276907645 42:30.870698080866262 43:1.0 44:1.5240108996761481 45:30.870698080866262 
0.81944122968851 1:2.0 2:0.0 3:49.24428900898052 4:1.0 5:1.52490034231231 6:44.77722635447622 7:1.0 8:0.5503578202075318 9:41.048751503547585 10:1.0 11:1.5151866683774904 12:39.66106403010388 13:1.0 14:1.5299906702782753 15:36.40054944640259 16:2.0 17:1.5403508771559027 18:34.828149534535996 19:2.0 20:0.9615680503986458 21:34.20526275297414 22:2.0 23:1.5707450718728813 24:32.55764119219941 25:1.0 26:1.5515578308146234 27:31.953090617340916 28:1.0 29:1.5156506899063198 30:31.827660925679098 31:1.0 32:1.5339836677937484 33:30.610455730027933 34:1.0 35:9.64910485036573E-4 36:30.4138126514911 37:1.0 38:1.5361858871945393 39:29.068883707497267 40:1.0 41:0.0013358191359378849 42:28.844410203711913 43:1.0 44:1.5396658519007271 45:28.653097563788805 
0.6892237200621479 1:2.0 2:0.0 3:55.326304774492215 4:2.0 5:1.4681536770013022 6:46.09772228646444 7:1.0 8:1.5006055596363137 9:38.41874542459709 10:1.0 11:1.4552335968174537 12:37.48332962798263 13:1.0 14:1.563742530698974 15:34.438350715445125 16:2.0 17:1.4534071399943127 18:34.20526275297414 19:1.0 20:1.529873705448452 21:33.52610922848042 22:1.0 23:1.5638190441026305 24:33.24154027718932 25:1.0 26:1.4652204855137023 27:33.0 28:1.0 29:1.5359813488575353 30:32.202484376209235 31:2.0 32:1.5707557866390647 33:31.906112267087632 34:2.0 35:1.5670588390094833 36:31.906112267087632 37:1.0 38:1.5224400426679192 39:31.016124838541646 40:1.0 41:1.5601287232135599 42:29.0 43:1.0 44:1.5196048089075458 45:28.319604517012593 
0.7864326977742745 1:1.0 2:1.5497841488323718 3:47.01063709417264 4:1.0 5:1.5204073519446666 6:45.967379738244816 7:2.0 8:1.5552478464250667 9:44.40720662234904 10:1.0 11:1.5420279958626242 12:44.04543109109048 13:1.0 14:1.5485282887975977 15:43.93176527297759 16:1.0 17:1.5516450340263443 18:43.04648650006177 19:1.0 20:1.5446502113703404 21:42.720018726587654 22:1.0 23:1.5439288631284533 24:41.43669871020132 25:1.0 26:1.5474338931143092 27:41.182520563948 28:1.0 29:1.553086401914778 30:40.024992192379 31:1.0 32:1.5455155150391555 33:40.01249804748511 34:1.0 35:1.5544698744151029 36:39.6232255123179 37:1.0 38:1.5395053965330696 39:39.45883931389772 40:1.0 41:1.547948148705744 42:39.21734310225516 43:1.0 44:1.548872363230081 45:39.05124837953327 
-0.07086635670322461 1:2.0 2:0.0 3:46.861498055439924 4:2.0 5:0.0 6:39.21734310225516 7:1.0 8:0.007668473155930556 9:38.2099463490856 10:2.0 11:0.15169428859776315 12:38.01315561749642 13:1.0 14:0.00309752273083031 15:37.107950630558946 16:1.0 17:0.0037106162298329 18:37.0 19:2.0 20:1.4317669881621278 21:32.57299494980466 22:1.0 23:0.007680863162734011 24:32.14031735997639 25:1.0 26:0.00595155159284514 27:29.614185789921695 28:2.0 29:1.5669788515007774 30:28.844410203711913 31:2.0 32:1.5439427093999258 33:27.65863337187866 34:1.0 35:0.06970156912606684 36:26.40075756488817 37:1.0 38:0.0020108588298568004 39:25.709920264364882 40:1.0 41:1.5085020937936773 42:25.495097567963924 43:1.0 44:0.00542636109512224 45:25.317977802344327 
-0.1806149562212465 1:2.0 2:1.2132512441787218 3:41.012193308819754 4:1.0 5:1.5230553044046626 6:36.49657518178932 7:1.0 8:1.5013323898297302 9:32.55764119219941 10:1.0 11:1.5367279149471995 12:32.01562118716424 13:1.0 14:1.4936546498601617 15:31.78049716414141 16:2.0 17:1.3886548859439476 18:31.38470965295043 19:1.0 20:1.5281537040124316 21:31.240998703626616 22:1.0 23:1.549781249215997 24:31.064449134018133 25:2.0 26:0.0 27:30.528675044947494 28:1.0 29:1.5274408792295944 30:30.265491900843113 31:1.0 32:1.4903946717476348 33:30.083217912982647 34:1.0 35:1.482350832272132 36:29.154759474226502 37:1.0 38:1.5339928248493333 39:27.784887978899608 40:2.0 41:1.4995283345489088 42:27.459060435491963 43:1.0 44:1.545977827498416 45:27.202941017470888 
-1.0 1:2.0 2:0.0 3:46.861498055439924 4:2.0 5:0.0 6:39.21734310225516 7:1.0 8:0.007668473155930556 9:38.2099463490856 10:2.0 11:0.15169428859776315 12:38.01315561749642 13:1.0 14:0.00309752273083031 15:37.107950630558946 16:1.0 17:0.0037106162298329 18:37.0 19:2.0 20:1.4317669881621278 21:32.57299494980466 22:1.0 23:0.007680863162734011 24:32.14031735997639 25:1.0 26:0.00595155159284514 27:29.614185789921695 28:2.0 29:1.5669788515007774 30:28.844410203711913 31:2.0 32:1.5439427093999258 33:27.65863337187866 34:1.0 35:0.06970156912606684 36:26.40075756488817 37:1.0 38:0.0020108588298568004 39:25.709920264364882 40:1.0 41:1.5085020937936773 42:25.495097567963924 43:1.0 44:0.00542636109512224 45:25.317977802344327 
-1.0 1:2.0 2:1.2132512441787218 3:41.012193308819754 4:1.0 5:1.5230553044046626 6:36.49657518178932 7:1.0 8:1.5013323898297302 9:32.55764119219941 10:1.0 11:1.5367279149471995 12:32.01562118716424 13:1.0 14:1.4936546498601617 15:31.78049716414141 16:2.0 17:1.3886548859439476 18:31.38470965295043 19:1.0 20:1.5281537040124316 21:31.240998703626616 22:1.0 23:1.549781249215997 24:31.064449134018133 25:2.0 26:0.0 27:30.528675044947494 28:1.0 29:1.5274408792295944 30:30.265491900843113 31:1.0 32:1.4903946717476348 33:30.083217912982647 34:1.0 35:1.482350832272132 36:29.154759474226502 37:1.0 38:1.5339928248493333 39:27.784887978899608 40:2.0 41:1.4995283345489088 42:27.459060435491963 43:1.0 44:1.545977827498416 45:27.202941017470888 
-0.44831770040047136 1:1.0 2:1.5497476119543958 3:43.04648650006177 4:1.0 5:1.5381411897222173 6:41.14608122288197 7:1.0 8:1.5549799511541973 9:39.59797974644666 10:1.0 11:1.5516677447401372 12:38.01315561749642 13:2.0 14:0.0 15:37.69615364994153 16:1.0 17:1.5537632003640505 18:36.40054944640259 19:1.0 20:1.5444936955215642 21:36.24913792078372 22:1.0 23:1.5449127121211332 24:35.77708763999664 25:1.0 26:1.5407343790481127 27:34.132096331752024 28:2.0 29:0.10552941064763384 30:33.24154027718932 31:1.0 32:1.549596739542552 33:32.38826948140329 34:1.0 35:1.527240572330831 36:32.2490309931942 37:1.0 38:1.5277728675582982 39:32.202484376209235 40:1.0 41:1.5349932351480886 42:28.442925306655784 43:1.0 44:0.5498565491551696 45:26.68332812825267 
-0.03387293749726204 1:1.0 2:1.5535156118754838 3:40.718546143004666 4:2.0 5:0.0 6:39.698866482558415 7:2.0 8:0.0 9:39.20459156782532 10:1.0 11:8.01529549469971E-4 12:36.013886210738214 13:1.0 14:1.5568636178206783 15:34.17601498127012 16:1.0 17:1.519796340802597 18:34.0147027033899 19:2.0 20:0.330830904849657 21:30.675723300355934 22:1.0 23:9.146850309335556E-4 24:29.427877939124322 25:1.0 26:1.4960525891935763 27:29.0 28:2.0 29:0.04155959242258417 30:27.313000567495326 31:1.0 32:1.5481054983080589 33:26.68332812825267 34:1.0 35:7.726702008088269E-4 36:26.019223662515376 37:1.0 38:1.4938188477525742 39:25.942243542145693 40:1.0 41:1.1407728839091786 42:24.041630560342615 43:1.0 44:1.4205143432598113 45:23.853720883753127 
-0.777433775658263 1:1.0 2:1.5497476119543958 3:43.04648650006177 4:1.0 5:1.5381411897222173 6:41.14608122288197 7:1.0 8:1.5549799511541973 9:39.59797974644666 10:1.0 11:1.5516677447401372 12:38.01315561749642 13:2.0 14:0.0 15:37.69615364994153 16:1.0 17:1.5537632003640505 18:36.40054944640259 19:1.0 20:1.5444936955215642 21:36.24913792078372 22:1.0 23:1.5449127121211332 24:35.77708763999664 25:1.0 26:1.5407343790481127 27:34.132096331752024 28:2.0 29:0.10552941064763384 30:33.24154027718932 31:1.0 32:1.549596739542552 33:32.38826948140329 34:1.0 35:1.527240572330831 36:32.2490309931942 37:1.0 38:1.5277728675582982 39:32.202484376209235 40:1.0 41:1.5349932351480886 42:28.442925306655784 43:1.0 44:0.5498565491551696 45:26.68332812825267 
-0.9953566089369806 1:1.0 2:1.5535156118754838 3:40.718546143004666 4:2.0 5:0.0 6:39.698866482558415 7:2.0 8:0.0 9:39.20459156782532 10:1.0 11:8.01529549469971E-4 12:36.013886210738214 13:1.0 14:1.5568636178206783 15:34.17601498127012 16:1.0 17:1.519796340802597 18:34.0147027033899 19:2.0 20:0.330830904849657 21:30.675723300355934 22:1.0 23:9.146850309335556E-4 24:29.427877939124322 25:1.0 26:1.4960525891935763 27:29.0 28:2.0 29:0.04155959242258417 30:27.313000567495326 31:1.0 32:1.5481054983080589 33:26.68332812825267 34:1.0 35:7.726702008088269E-4 36:26.019223662515376 37:1.0 38:1.4938188477525742 39:25.942243542145693 40:1.0 41:1.1407728839091786 42:24.041630560342615 43:1.0 44:1.4205143432598113 45:23.853720883753127 
-1.0 1:2.0 2:0.0 3:46.861498055439924 4:2.0 5:0.0 6:39.21734310225516 7:1.0 8:0.007668473155930556 9:38.2099463490856 10:2.0 11:0.15169428859776315 12:38.01315561749642 13:1.0 14:0.00309752273083031 15:37.107950630558946 16:1.0 17:0.0037106162298329 18:37.0 19:2.0 20:1.4317669881621278 21:32.57299494980466 22:1.0 23:0.007680863162734011 24:32.14031735997639 25:1.0 26:0.00595155159284514 27:29.614185789921695 28:2.0 29:1.5669788515007774 30:28.844410203711913 31:2.0 32:1.5439427093999258 33:27.65863337187866 34:1.0 35:0.06970156912606684 36:26.40075756488817 37:1.0 38:0.0020108588298568004 39:25.709920264364882 40:1.0 41:1.5085020937936773 42:25.495097567963924 43:1.0 44:0.00542636109512224 45:25.317977802344327 
-0.9562381363243904 1:2.0 2:1.2132512441787218 3:41.012193308819754 4:1.0 5:1.5230553044046626 6:36.49657518178932 7:1.0 8:1.5013323898297302 9:32.55764119219941 10:1.0 11:1.5367279149471995 12:32.01562118716424 13:1.0 14:1.4936546498601617 15:31.78049716414141 16:2.0 17:1.3886548859439476 18:31.38470965295043 19:1.0 20:1.5281537040124316 21:31.240998703626616 22:1.0 23:1.549781249215997 24:31.064449134018133 25:2.0 26:0.0 27:30.528675044947494 28:1.0 29:1.5274408792295944 30:30.265491900843113 31:1.0 32:1.4903946717476348 33:30.083217912982647 34:1.0 35:1.482350832272132 36:29.154759474226502 37:1.0 38:1.5339928248493333 39:27.784887978899608 40:2.0 41:1.4995283345489088 42:27.459060435491963 43:1.0 44:1.545977827498416 45:27.202941017470888 
