svm_type c_svc
kernel_type rbf
gamma 0.016666666666666666
nr_class 2
total_sv 18
rho -0.1763137766276924
label 1 -1
nr_sv 8 10
SV
1.0 1:1.0 2:1.5497476119543958 3:43.04648650006177 4:1.0 5:1.5381411897222173 6:41.14608122288197 7:1.0 8:1.5549799511541973 9:39.59797974644666 10:1.0 11:1.5516677447401372 12:38.01315561749642 13:2.0 14:0.0 15:37.69615364994153 16:1.0 17:1.5537632003640505 18:36.40054944640259 19:1.0 20:1.5444936955215642 21:36.24913792078372 22:1.0 23:1.5449127121211332 24:35.77708763999664 25:1.0 26:1.5407343790481127 27:34.132096331752024 28:2.0 29:0.10552941064763384 30:33.24154027718932 31:1.0 32:1.549596739542552 33:32.38826948140329 34:1.0 35:1.527240572330831 36:32.2490309931942 37:1.0 38:1.5277728675582982 39:32.202484376209235 40:1.0 41:1.5349932351480886 42:28.442925306655784 43:1.0 44:0.5498565491551696 45:26.68332812825267 46:1.0 47:7.563476950101645E-4 48:26.419689627245813 49:1.0 50:1.548307309762507 51:26.40075756488817 52:2.0 53:0.04435279326760286 54:25.942243542145693 55:1.0 56:0.24595075975832226 57:25.495097567963924 58:1.0 59:1.4885846571877586 60:24.758836806279895 
1.0 1:1.0 2:1.5535156118754838 3:40.718546143004666 4:2.0 5:0.0 6:39.698866482558415 7:2.0 8:0.0 9:39.20459156782532 10:1.0 11:8.01529549469971E-4 12:36.013886210738214 13:1.0 14:1.5568636178206783 15:34.17601498127012 16:1.0 17:1.519796340802597 18:34.0147027033899 19:2.0 20:0.330830904849657 21:30.675723300355934 22:1.0 23:9.146850309335556E-4 24:29.427877939124322 25:1.0 26:1.4960525891935763 27:29.0 28:2.0 29:0.04155959242258417 30:27.313000567495326 31:1.0 32:1.5481054983080589 33:26.68332812825267 34:1.0 35:7.726702008088269E-4 36:26.019223662515376 37:1.0 38:1.4938188477525742 39:25.942243542145693 40:1.0 41:1.1407728839091786 42:24.041630560342615 43:1.0 44:1.4205143432598113 45:23.853720883753127 46:1.0 47:1.530425278407602 48:23.53720459187964 49:2.0 50:1.4916730284204398 51:22.090722034374522 52:2.0 53:1.5310210452589141 54:22.090722034374522 55:1.0 56:1.5367246529014713 57:21.93171219946131 58:1.0 59:0.0034129597712006404 60:21.400934559032695 
0.6359852600280064 1:1.0 2:1.5383401431689194 3:49.9799959983992 4:1.0 5:1.5364901944258678 6:47.01063709417264 7:1.0 8:1.5348220610136072 9:43.657759905886145 10:1.0 11:1.5604013870184454 12:43.41658669218482 13:1.0 14:1.5634516047981712 15:41.617304093369626 16:1.0 17:1.5516283902632813 18:41.593268686170845 19:1.0 20:1.5466633854181109 21:41.43669871020132 22:1.0 23:1.5400410110919516 24:41.23105625617661 25:2.0 26:1.5071334621998387 27:41.10960958218893 28:1.0 29:1.5569511475225863 30:41.036569057366385 31:1.0 32:1.550186535079939 33:40.45985664828782 34:1.0 35:1.5479552086955057 36:39.81205847478876 37:1.0 38:1.5506361817062928 39:39.56008088970496 40:1.0 41:1.515990606600296 42:37.94733192202055 43:2.0 44:0.0 45:33.83784863137726 46:1.0 47:1.5463850626538949 48:32.7566787083184 49:2.0 50:0.0 51:32.57299494980466 52:1.0 53:1.5368350916590345 54:32.2490309931942 55:1.0 56:1.5531406093621716 57:31.38470965295043 58:1.0 59:1.5363481951247686 60:31.064449134018133 
1.0 1:1.0 2:1.5438080763042257 3:41.43669871020132 4:2.0 5:1.4435476779620005 6:38.07886552931954 7:1.0 8:1.5257793548549015 9:35.510561809129406 10:1.0 11:1.5549552068402814 12:32.984845004941285 13:1.0 14:1.556333936695797 15:32.55764119219941 16:1.0 17:1.5064026575508138 18:31.78049716414141 19:1.0 20:1.543599986876075 21:29.832867780352597 22:1.0 23:1.5403171512257332 24:29.546573405388315 25:1.0 26:1.5578962179636733 27:29.0 28:1.0 29:1.5469144494829608 30:28.442925306655784 31:1.0 32:1.5501401468123277 33:27.294688127912362 34:1.0 35:1.5454813470303108 36:24.839484696748443 37:1.0 38:1.5409108937857758 39:24.698178070456937 40:2.0 41:0.08272515673859358 42:24.351591323771842 43:1.0 44:1.5468308273121807 45:22.80350850198276 46:1.0 47:1.5026365063589027 48:22.02271554554524 49:1.0 50:1.5478158047278396 51:22.02271554554524 52:1.0 53:1.5360671940410782 54:21.633307652783937 55:1.0 56:1.554083723982224 57:21.540659228538015 58:1.0 59:1.5401877247112372 60:21.400934559032695 
0.8160756650373314 1:1.0 2:1.5023984891646622 3:54.48853090330111 4:2.0 5:0.0 6:51.62363799656123 7:1.0 8:1.5264070816382524 9:47.80167361086848 10:1.0 11:1.5134814054730719 12:47.38143096192854 13:1.0 14:1.5551294375642513 15:41.677331968349414 16:1.0 17:0.9298226047608201 18:40.496913462633174 19:1.0 20:1.5288232101999604 21:39.96248240537617 22:1.0 23:0.4527740969979999 24:36.069377593742864 25:1.0 26:1.5075375342093824 27:35.73513677041127 28:1.0 29:1.552529600009144 30:35.34119409414458 31:1.0 32:1.5357114250127226 33:34.20526275297414 34:1.0 35:1.507234791945115 36:33.97057550292606 37:2.0 38:0.05190904161197568 39:33.54101966249684 40:1.0 41:1.5203533796474735 42:33.421549934136806 43:1.0 44:1.5532347943055993 45:32.31098884280702 46:1.0 47:1.5548376409728657 48:32.01562118716424 49:1.0 50:1.4257244951413406 51:31.240998703626616 52:1.0 53:1.0538499476322953 54:30.886890422961002 55:1.0 56:1.5481537801417429 57:30.0 58:1.0 59:1.48726298225198 60:29.732137494637012 
1.0 1:2.0 2:1.5425620238655107 3:45.880278987817846 4:1.0 5:1.5529375626224282 6:42.15447781671598 7:1.0 8:1.5478985086870256 9:41.7612260356422 10:1.0 11:1.537877842013045 12:38.01315561749642 13:1.0 14:1.5496792813418432 15:36.68787265568828 16:1.0 17:1.5480773791946192 18:34.0 19:1.0 20:1.554607922450992 21:33.37663853655727 22:1.0 23:1.5378795258007532 24:31.016124838541646 25:2.0 26:1.2328696015714584 27:30.886890422961002 28:1.0 29:1.5491377984387413 30:30.066592756745816 31:1.0 32:1.4984425444394396 33:29.410882339705484 34:1.0 35:1.5397997970146566 36:29.017236257093817 37:1.0 38:1.5294947619805808 39:27.65863337187866 40:1.0 41:1.4952228656490163 42:24.698178070456937 43:1.0 44:1.5317764646350218 45:23.021728866442675 46:1.0 47:1.5507028254215887 48:22.47220505424423 49:2.0 50:0.0 51:22.47220505424423 52:1.0 53:1.5385172651130585 54:22.02271554554524 55:1.0 56:1.546703710865842 57:21.2602916254693 58:1.0 59:1.525366089230664 60:19.697715603592208 
0.6322875144754446 1:1.0 2:1.5520871740597104 3:45.31004303683677 4:1.0 5:1.545294209514477 6:45.0111097397076 7:1.0 8:1.5559428263190473 9:42.95346318982906 10:1.0 11:1.5517877634183908 12:42.1070065428546 13:1.0 14:1.5600132813331729 15:41.773197148410844 16:1.0 17:1.5507325729001247 18:41.48493702538308 19:1.0 20:1.5383829552021806 21:41.19465984809196 22:1.0 23:1.5561863977301045 24:39.96248240537617 25:1.0 26:1.5554992716685137 27:39.11521443121589 28:1.0 29:1.5463917189316354 30:39.05124837953327 31:1.0 32:1.552551720927178 33:39.05124837953327 34:1.0 35:1.5509838518198151 36:39.05124837953327 37:1.0 38:1.5438825001815557 39:36.05551275463989 40:1.0 41:1.5429992765980145 42:35.05709628591621 43:1.0 44:1.5530477725409189 45:33.95585369269929 46:1.0 47:1.5485509782699443 48:33.61547262794322 49:1.0 50:1.5434040083239227 51:31.064449134018133 52:1.0 53:1.5403364655848713 54:31.016124838541646 55:1.0 56:1.5409584476600777 57:30.675723300355934 58:1.0 59:1.5426148517230778 60:30.463092423455635 
0.8235413462240101 1:1.0 2:1.5552382602068264 3:65.79513659838392 4:1.0 5:1.5536764319277308 6:58.7962583843564 7:1.0 8:1.540471579576595 9:57.245087125446844 10:1.0 11:1.5267359711809054 12:52.15361924162119 13:1.0 14:1.5497676866512573 15:51.62363799656123 16:1.0 17:1.5549639354688638 18:43.93176527297759 19:1.0 20:1.4938235838879765 21:42.720018726587654 22:1.0 23:1.5380299100057235 24:39.05124837953327 25:1.0 26:1.4927888201615038 27:38.48376280978771 28:1.0 29:1.5408215915452446 30:37.73592452822641 31:1.0 32:1.4801683176885312 33:37.36308338453881 34:2.0 35:0.0 36:36.124783736376884 37:2.0 38:0.0 39:35.22782990761707 40:1.0 41:1.4863794677300985 42:34.20526275297414 43:1.0 44:1.5283030866811615 45:34.0147027033899 46:1.0 47:1.5180542441375997 48:33.54101966249684 49:1.0 50:0.11269393303791962 51:31.906112267087632 52:1.0 53:1.5103029730889497 54:30.479501308256342 55:1.0 56:1.5311306007857532 57:30.265491900843113 58:1.0 59:1.5204266205671917 60:29.68164415931166 
-0.16696188542426882 1:1.0 2:1.5497476119543958 3:43.04648650006177 4:1.0 5:1.5381411897222173 6:41.14608122288197 7:1.0 8:1.5549799511541973 9:39.59797974644666 10:1.0 11:1.5516677447401372 12:38.01315561749642 13:2.0 14:0.0 15:37.69615364994153 16:1.0 17:1.5537632003640505 18:36.40054944640259 19:1.0 20:1.5444936955215642 21:36.24913792078372 22:1.0 23:1.5449127121211332 24:35.77708763999664 25:1.0 26:1.5407343790481127 27:34.132096331752024 28:2.0 29:0.10552941064763384 30:33.24154027718932 31:1.0 32:1.549596739542552 33:32.38826948140329 34:1.0 35:1.527240572330831 36:32.2490309931942 37:1.0 38:1.5277728675582982 39:32.202484376209235 40:1.0 41:1.5349932351480886 42:28.442925306655784 43:1.0 44:0.5498565491551696 45:26.68332812825267 46:1.0 47:7.563476950101645E-4 48:26.419689627245813 49:1.0 50:1.548307309762507 51:26.40075756488817 52:2.0 53:0.04435279326760286 54:25.942243542145693 55:1.0 56:0.24595075975832226 57:25.495097567963924 58:1.0 59:1.4885846571877586 60:24.758836806279895 
-0.6491137796130626 1:1.0 2:1.5535156118754838 3:40.718546143004666 4:2.0 5:0.0 6:39.698866482558415 7:2.0 8:0.0 9:39.20459156782532 10:1.0 11:8.01529549469971E-4 12:36.013886210738214 13:1.0 14:1.5568636178206783 15:34.17601498127012 16:1.0 17:1.519796340802597 18:34.0147027033899 19:2.0 20:0.330830904849657 21:30.675723300355934 22:1.0 23:9.146850309335556E-4 24:29.427877939124322 25:1.0 26:1.4960525891935763 27:29.0 28:2.0 29:0.04155959242258417 30:27.313000567495326 31:1.0 32:1.5481054983080589 33:26.68332812825267 34:1.0 35:7.726702008088269E-4 36:26.019223662515376 37:1.0 38:1.4938188477525742 39:25.942243542145693 40:1.0 41:1.1407728839091786 42:24.041630560342615 43:1.0 44:1.4205143432598113 45:23.853720883753127 46:1.0 47:1.530425278407602 48:23.53720459187964 49:2.0 50:1.4916730284204398 51:22.090722034374522 52:2.0 53:1.5310210452589141 54:22.090722034374522 55:1.0 56:1.5367246529014713 57:21.93171219946131 58:1.0 59:0.0034129597712006404 60:21.400934559032695 
-1.0 1:1.0 2:1.5497476119543958 3:43.04648650006177 4:1.0 5:1.5381411897222173 6:41.14608122288197 7:1.0 8:1.5549799511541973 9:39.59797974644666 10:1.0 11:1.5516677447401372 12:38.01315561749642 13:2.0 14:0.0 15:37.69615364994153 16:1.0 17:1.5537632003640505 18:36.40054944640259 19:1.0 20:1.5444936955215642 21:36.24913792078372 22:1.0 23:1.5449127121211332 24:35.77708763999664 25:1.0 26:1.5407343790481127 27:34.132096331752024 28:2.0 29:0.10552941064763384 30:33.24154027718932 31:1.0 32:1.549596739542552 33:32.38826948140329 34:1.0 35:1.527240572330831 36:32.2490309931942 37:1.0 38:1.5277728675582982 39:32.202484376209235 40:1.0 41:1.5349932351480886 42:28.442925306655784 43:1.0 44:0.5498565491551696 45:26.68332812825267 46:1.0 47:7.563476950101645E-4 48:26.419689627245813 49:1.0 50:1.548307309762507 51:26.40075756488817 52:2.0 53:0.04435279326760286 54:25.942243542145693 55:1.0 56:0.24595075975832226 57:25.495097567963924 58:1.0 59:1.4885846571877586 60:24.758836806279895 
-1.0 1:1.0 2:1.5535156118754838 3:40.718546143004666 4:2.0 5:0.0 6:39.698866482558415 7:2.0 8:0.0 9:39.20459156782532 10:1.0 11:8.01529549469971E-4 12:36.013886210738214 13:1.0 14:1.5568636178206783 15:34.17601498127012 16:1.0 17:1.519796340802597 18:34.0147027033899 19:2.0 20:0.330830904849657 21:30.675723300355934 22:1.0 23:9.146850309335556E-4 24:29.427877939124322 25:1.0 26:1.4960525891935763 27:29.0 28:2.0 29:0.04155959242258417 30:27.313000567495326 31:1.0 32:1.5481054983080589 33:26.68332812825267 34:1.0 35:7.726702008088269E-4 36:26.019223662515376 37:1.0 38:1.4938188477525742 39:25.942243542145693 40:1.0 41:1.1407728839091786 42:24.041630560342615 43:1.0 44:1.4205143432598113 45:23.853720883753127 46:1.0 47:1.530425278407602 48:23.53720459187964 49:2.0 50:1.4916730284204398 51:22.090722034374522 52:2.0 53:1.5310210452589141 54:22.090722034374522 55:1.0 56:1.5367246529014713 57:21.93171219946131 58:1.0 59:0.0034129597712006404 60:21.400934559032695 
-0.10930495507903723 1:2.0 2:0.0 3:46.861498055439924 4:2.0 5:0.0 6:39.21734310225516 7:1.0 8:0.007668473155930556 9:38.2099463490856 10:2.0 11:0.15169428859776315 12:38.01315561749642 13:1.0 14:0.00309752273083031 15:37.107950630558946 16:1.0 17:0.0037106162298329 18:37.0 19:2.0 20:1.4317669881621278 21:32.57299494980466 22:1.0 23:0.007680863162734011 24:32.14031735997639 25:1.0 26:0.00595155159284514 27:29.614185789921695 28:2.0 29:1.5669788515007774 30:28.844410203711913 31:2.0 32:1.5439427093999258 33:27.65863337187866 34:1.0 35:0.06970156912606684 36:26.40075756488817 37:1.0 38:0.0020108588298568004 39:25.709920264364882 40:1.0 41:1.5085020937936773 42:25.495097567963924 43:1.0 44:0.00542636109512224 45:25.317977802344327 46:1.0 47:1.5600509405686356 48:24.351591323771842 49:1.0 50:1.539764538055276 51:24.186773244895647 52:2.0 53:1.5703132163193876 54:24.08318915758459 55:1.0 56:0.0017907219696192142 57:24.020824298928627 58:1.0 59:0.029664204594944094 60:23.706539182259394 
-0.17724432737463475 1:2.0 2:1.2132512441787218 3:41.012193308819754 4:1.0 5:1.5230553044046626 6:36.49657518178932 7:1.0 8:1.5013323898297302 9:32.55764119219941 10:1.0 11:1.5367279149471995 12:32.01562118716424 13:1.0 14:1.4936546498601617 15:31.78049716414141 16:2.0 17:1.3886548859439476 18:31.38470965295043 19:1.0 20:1.5281537040124316 21:31.240998703626616 22:1.0 23:1.549781249215997 24:31.064449134018133 25:2.0 26:0.0 27:30.528675044947494 28:1.0 29:1.5274408792295944 30:30.265491900843113 31:1.0 32:1.4903946717476348 33:30.083217912982647 34:1.0 35:1.482350832272132 36:29.154759474226502 37:1.0 38:1.5339928248493333 39:27.784887978899608 40:2.0 41:1.4995283345489088 42:27.459060435491963 43:1.0 44:1.545977827498416 45:27.202941017470888 46:1.0 47:1.5691548483890003 48:27.018512172212592 49:1.0 50:1.529667250707444 51:26.832815729997478 52:1.0 53:1.5371194156633525 54:26.476404589747453 55:1.0 56:1.530162666123479 57:24.331050121192877 58:1.0 59:1.5224066578314988 60:24.331050121192877 
-0.9980100201454686 1:1.0 2:1.5497476119543958 3:43.04648650006177 4:1.0 5:1.5381411897222173 6:41.14608122288197 7:1.0 8:1.5549799511541973 9:39.59797974644666 10:1.0 11:1.5516677447401372 12:38.01315561749642 13:2.0 14:0.0 15:37.69615364994153 16:1.0 17:1.5537632003640505 18:36.40054944640259 19:1.0 20:1.5444936955215642 21:36.24913792078372 22:1.0 23:1.5449127121211332 24:35.77708763999664 25:1.0 26:1.5407343790481127 27:34.132096331752024 28:2.0 29:0.10552941064763384 30:33.24154027718932 31:1.0 32:1.549596739542552 33:32.38826948140329 34:1.0 35:1.527240572330831 36:32.2490309931942 37:1.0 38:1.5277728675582982 39:32.202484376209235 40:1.0 41:1.5349932351480886 42:28.442925306655784 43:1.0 44:0.5498565491551696 45:26.68332812825267 46:1.0 47:7.563476950101645E-4 48:26.419689627245813 49:1.0 50:1.548307309762507 51:26.40075756488817 52:2.0 53:0.04435279326760286 54:25.942243542145693 55:1.0 56:0.24595075975832226 57:25.495097567963924 58:1.0 59:1.4885846571877586 60:24.758836806279895 
-0.8163501811458878 1:1.0 2:1.5535156118754838 3:40.718546143004666 4:2.0 5:0.0 6:39.698866482558415 7:2.0 8:0.0 9:39.20459156782532 10:1.0 11:8.01529549469971E-4 12:36.013886210738214 13:1.0 14:1.5568636178206783 15:34.17601498127012 16:1.0 17:1.519796340802597 18:34.0147027033899 19:2.0 20:0.330830904849657 21:30.675723300355934 22:1.0 23:9.146850309335556E-4 24:29.427877939124322 25:1.0 26:1.4960525891935763 27:29.0 28:2.0 29:0.04155959242258417 30:27.313000567495326 31:1.0 32:1.5481054983080589 33:26.68332812825267 34:1.0 35:7.726702008088269E-4 36:26.019223662515376 37:1.0 38:1.4938188477525742 39:25.942243542145693 40:1.0 41:1.1407728839091786 42:24.041630560342615 43:1.0 44:1.4205143432598113 45:23.853720883753127 46:1.0 47:1.530425278407602 48:23.53720459187964 49:2.0 50:1.4916730284204398 51:22.090722034374522 52:2.0 53:1.5310210452589141 54:22.090722034374522 55:1.0 56:1.5367246529014713 57:21.93171219946131 58:1.0 59:0.0034129597712006404 60:21.400934559032695 
-0.9909046369824327 1:2.0 2:0.0 3:46.861498055439924 4:2.0 5:0.0 6:39.21734310225516 7:1.0 8:0.007668473155930556 9:38.2099463490856 10:2.0 11:0.15169428859776315 12:38.01315561749642 13:1.0 14:0.00309752273083031 15:37.107950630558946 16:1.0 17:0.0037106162298329 18:37.0 19:2.0 20:1.4317669881621278 21:32.57299494980466 22:1.0 23:0.007680863162734011 24:32.14031735997639 25:1.0 26:0.00595155159284514 27:29.614185789921695 28:2.0 29:1.5669788515007774 30:28.844410203711913 31:2.0 32:1.5439427093999258 33:27.65863337187866 34:1.0 35:0.06970156912606684 36:26.40075756488817 37:1.0 38:0.0020108588298568004 39:25.709920264364882 40:1.0 41:1.5085020937936773 42:25.495097567963924 43:1.0 44:0.00542636109512224 45:25.317977802344327 46:1.0 47:1.5600509405686356 48:24.351591323771842 49:1.0 50:1.539764538055276 51:24.186773244895647 52:2.0 53:1.5703132163193876 54:24.08318915758459 55:1.0 56:0.0017907219696192142 57:24.020824298928627 58:1.0 59:0.029664204594944094 60:23.706539182259394 
-1.0 1:2.0 2:1.2132512441787218 3:41.012193308819754 4:1.0 5:1.5230553044046626 6:36.49657518178932 7:1.0 8:1.5013323898297302 9:32.55764119219941 10:1.0 11:1.5367279149471995 12:32.01562118716424 13:1.0 14:1.4936546498601617 15:31.78049716414141 16:2.0 17:1.3886548859439476 18:31.38470965295043 19:1.0 20:1.5281537040124316 21:31.240998703626616 22:1.0 23:1.549781249215997 24:31.064449134018133 25:2.0 26:0.0 27:30.528675044947494 28:1.0 29:1.5274408792295944 30:30.265491900843113 31:1.0 32:1.4903946717476348 33:30.083217912982647 34:1.0 35:1.482350832272132 36:29.154759474226502 37:1.0 38:1.5339928248493333 39:27.784887978899608 40:2.0 41:1.4995283345489088 42:27.459060435491963 43:1.0 44:1.545977827498416 45:27.202941017470888 46:1.0 47:1.5691548483890003 48:27.018512172212592 49:1.0 50:1.529667250707444 51:26.832815729997478 52:1.0 53:1.5371194156633525 54:26.476404589747453 55:1.0 56:1.530162666123479 57:24.331050121192877 58:1.0 59:1.5224066578314988 60:24.331050121192877 
