svm_type c_svc
kernel_type rbf
gamma 0.016666666666666666
nr_class 2
total_sv 16
rho -0.33224705171095953
label 1 -1
nr_sv 8 8
SV
1.0 1:1.0 2:1.5325224785350655 3:40.496913462633174 4:1.0 5:1.5300459649689815 6:38.2099463490856 7:1.0 8:1.5704560287200298 9:34.36568055487916 10:1.0 11:1.535529934652804 12:34.058772731852805 13:1.0 14:1.570426930489409 15:32.55764119219941 16:1.0 17:0.0020991393181963042 18:32.38826948140329 19:1.0 20:1.5706959016439153 21:32.2490309931942 22:1.0 23:1.476502847637646 24:31.25699921617557 25:1.0 26:1.5447083202117116 27:31.11269837220809 28:1.0 29:1.570578787007752 30:30.4138126514911 31:1.0 32:1.5627956839843606 33:28.600699292150182 34:1.0 35:8.831653206105282E-4 36:28.178005607210743 37:1.0 38:1.5707074047997764 39:28.0178514522438 40:1.0 41:0.0022843300579522808 42:27.0 43:1.0 44:1.569109925510726 45:26.019223662515376 46:1.0 47:1.5707168173729038 48:26.0 49:1.0 50:1.5688943944144003 51:25.612496949731394 52:1.0 53:1.5679628342523402 54:24.0 55:1.0 56:1.5701220938382041 57:23.53720459187964 58:1.0 59:0.0016568599552030437 60:23.53720459187964 
1.0 1:1.0 2:1.5427297518951453 3:45.803929962395145 4:1.0 5:1.5430247889060653 6:43.01162633521314 7:1.0 8:1.5448380919375317 9:40.45985664828782 10:1.0 11:1.5294316836948507 12:38.01315561749642 13:1.0 14:1.5703152037266466 15:36.05551275463989 16:1.0 17:1.5698972316595121 18:35.0 19:1.0 20:1.5703377742179738 21:34.438350715445125 22:1.0 23:1.5399368803369493 24:33.24154027718932 25:1.0 26:1.5703981271572212 27:33.06055050963308 28:1.0 29:1.5697902597704783 30:32.802438933713454 31:1.0 32:1.57026916452597 33:31.016124838541646 34:1.0 35:1.5361142146962556 36:31.016124838541646 37:1.0 38:1.5673020206621684 39:29.732137494637012 40:1.0 41:1.5691565175220024 42:26.476404589747453 43:2.0 44:1.5033169975674696 45:24.839484696748443 46:2.0 47:1.541684410982215 48:24.351591323771842 49:2.0 50:1.4967195136741522 51:24.08318915758459 52:2.0 53:1.566837836323382 54:24.08318915758459 55:1.0 56:1.5257997176289453 57:24.020824298928627 58:1.0 59:1.5686800638686114 60:23.600847442411894 
0.5556901279200824 1:2.0 2:1.5695246479057963 3:36.069377593742864 4:1.0 5:8.567396429807337E-4 6:33.24154027718932 7:1.0 8:0.001239863156784961 9:31.016124838541646 10:1.0 11:1.5501719485442553 12:27.586228448267445 13:1.0 14:1.5651818300470022 15:26.40075756488817 16:1.0 17:1.542411568461569 18:26.0 19:1.0 20:1.5642118294324303 21:25.059928172283335 22:1.0 23:1.5700808058338125 24:24.186773244895647 25:1.0 26:1.5447605895301524 27:23.853720883753127 28:1.0 29:1.5636202089066136 30:23.600847442411894 31:1.0 32:1.5060771312748302 33:23.345235059857504 34:1.0 35:1.5695656584621345 36:23.194827009486403 37:2.0 38:1.4380312388348713 39:23.021728866442675 40:1.0 41:1.5698246792833945 42:22.360679774997898 43:1.0 44:6.005848103695828E-4 45:22.360679774997898 46:1.0 47:0.001245006738371973 48:22.02271554554524 49:1.0 50:1.5531078646002539 51:21.95449840010015 52:1.0 53:0.009696858236865275 54:21.633307652783937 55:1.0 56:1.5318284020885289 57:21.540659228538015 58:1.0 59:0.004887395711752924 60:21.213203435596427 
0.9990602999269402 1:2.0 2:1.4251166316020034 3:47.4236228055175 4:2.0 5:0.0 6:42.44997055358225 7:1.0 8:0.011745689371992673 9:37.0 10:1.0 11:0.016232377725845924 12:33.24154027718932 13:2.0 14:1.5306367276402029 15:32.802438933713454 16:1.0 17:1.5678317051209287 18:32.449961479175904 19:1.0 20:1.5478660482213582 21:30.59411708155671 22:1.0 23:0.0081530374993577 24:30.0 25:1.0 26:1.5680930968548887 27:29.120439557122072 28:1.0 29:1.5349464269626476 30:28.635642126552707 31:1.0 32:1.546727475390994 33:28.442925306655784 34:1.0 35:0.0660318403627853 36:27.730849247724095 37:1.0 38:1.5248008394579462 39:27.459060435491963 40:1.0 41:1.5184257175828597 42:27.073972741361768 43:1.0 44:1.5699873047211095 45:26.627053911388696 46:1.0 47:1.5250087470841573 48:25.495097567963924 49:1.0 50:1.5550788472145687 51:25.0 52:1.0 53:1.5396630979647834 54:24.413111231467404 55:1.0 56:0.014404716349395835 57:23.0 58:1.0 59:1.5569679484161123 60:22.80350850198276 
0.6468947236272596 1:2.0 2:0.0 3:33.97057550292606 4:2.0 5:1.5697371385721717 6:26.1725046566048 7:1.0 8:1.570586087250385 9:24.041630560342615 10:1.0 11:1.5704378967254315 12:23.021728866442675 13:1.0 14:1.475195268268148 15:22.80350850198276 16:1.0 17:1.5698257770472916 18:22.20360331117452 19:2.0 20:1.4849850487077272 21:21.633307652783937 22:1.0 23:1.5686364075176549 24:21.02379604162864 25:1.0 26:1.5706757017069193 27:20.615528128088304 28:1.0 29:0.0143007975295435 30:19.924858845171276 31:1.0 32:1.4307653607395558 33:19.72308292331602 34:1.0 35:1.5702114306873811 36:19.6468827043885 37:1.0 38:1.5706332680983535 39:19.313207915827967 40:1.0 41:1.569967055677734 42:19.235384061671343 43:1.0 44:1.5379378606970302 45:18.601075237738275 46:1.0 47:1.5001451254573466 48:18.439088914585774 49:1.0 50:0.004182249072686068 51:18.384776310850235 52:2.0 53:0.006562542048899662 54:18.384776310850235 55:1.0 56:1.5676868187522206 57:18.110770276274835 58:1.0 59:1.5689393671421092 60:18.027756377319946 
0.6569118931195174 1:2.0 2:0.0 3:59.20304046246274 4:2.0 5:1.5239956143402864 6:40.24922359499622 7:1.0 8:1.4356962875261914 9:39.05124837953327 10:1.0 11:1.4521962789833602 12:37.8549864614954 13:1.0 14:1.4337032778552317 15:31.400636936215164 16:1.0 17:1.5393685371396428 18:30.066592756745816 19:1.0 20:1.555418138392732 21:28.178005607210743 22:1.0 23:1.5247953453499536 24:27.892651361962706 25:2.0 26:1.5278898041589997 27:27.018512172212592 28:1.0 29:9.672752861043722E-4 30:26.476404589747453 31:2.0 32:1.567410423183639 33:26.40075756488817 34:2.0 35:1.5688332182615108 36:26.019223662515376 37:1.0 38:1.5695954941431531 39:25.0 40:1.0 41:0.6987264594502292 42:24.351591323771842 43:1.0 44:1.5698070282082863 45:24.08318915758459 46:1.0 47:1.5641720425640582 48:23.769728648009426 49:1.0 50:1.555406816623129 51:23.259406699226016 52:1.0 53:9.082058959193728E-4 54:22.847319317591726 55:1.0 56:1.5347397836625014 57:22.561028345356956 58:1.0 59:1.564325009584909 60:22.360679774997898 
1.0 1:2.0 2:0.0 3:41.86884283091664 4:2.0 5:0.0 6:40.80441152620633 7:1.0 8:1.5259419964537386 9:39.20459156782532 10:1.0 11:1.2766039619534855 12:36.359317925395686 13:1.0 14:1.5693503233407018 15:32.802438933713454 16:1.0 17:1.5265878814203035 18:31.38470965295043 19:1.0 20:1.570723632595242 21:31.064449134018133 22:1.0 23:1.5691563373064785 24:31.016124838541646 25:1.0 26:1.5686306608898468 27:30.610455730027933 28:1.0 29:1.5707658388808095 30:29.410882339705484 31:1.0 32:1.5707544322999476 33:28.30194339616981 34:1.0 35:1.4735171589936455 36:27.65863337187866 37:1.0 38:1.5474414181556277 39:27.294688127912362 40:1.0 41:1.5707623420778922 42:27.202941017470888 43:1.0 44:1.570749955582327 45:26.076809620810597 46:1.0 47:1.5707649979923841 48:25.553864678361276 49:2.0 50:0.009623284811767796 51:25.0 52:1.0 53:1.567983402294707 54:24.698178070456937 55:1.0 56:1.5702156070960345 57:23.706539182259394 58:1.0 59:1.569150788943802 60:23.53720459187964 
0.528069195509551 1:1.0 2:1.4283855703726915 3:36.069377593742864 4:1.0 5:1.5087350540727391 6:27.730849247724095 7:1.0 8:1.5681522007373978 9:26.40075756488817 10:1.0 11:1.5560760827837938 12:25.238858928247925 13:1.0 14:1.5663539204852148 15:24.413111231467404 16:2.0 17:1.5609689254882357 18:24.020824298928627 19:1.0 20:1.5667793044266425 21:23.853720883753127 22:1.0 23:1.5703518442062376 24:23.430749027719962 25:1.0 26:1.5431162966807408 27:23.345235059857504 28:1.0 29:0.005901264717024671 30:23.323807579381203 31:1.0 32:0.13897235167290642 33:23.021728866442675 34:2.0 35:1.5699963502922731 36:23.0 37:1.0 38:0.019476085338639287 39:22.847319317591726 40:1.0 41:1.5176555413204134 42:22.561028345356956 43:1.0 44:1.5493171219595463 45:22.360679774997898 46:1.0 47:0.0015430481300026271 48:22.360679774997898 49:2.0 50:0.0023187160462714994 51:22.090722034374522 52:1.0 53:1.564666906295037 54:22.090722034374522 55:1.0 56:1.5677793444004846 57:21.633307652783937 58:1.0 59:1.5702740772017485 60:21.587033144922902 
-0.5210643426629161 1:1.0 2:1.5427297518951453 3:45.803929962395145 4:1.0 5:1.5430247889060653 6:43.01162633521314 7:1.0 8:1.5448380919375317 9:40.45985664828782 10:1.0 11:1.5294316836948507 12:38.01315561749642 13:1.0 14:1.5703152037266466 15:36.05551275463989 16:1.0 17:1.5698972316595121 18:35.0 19:1.0 20:1.5703377742179738 21:34.438350715445125 22:1.0 23:1.5399368803369493 24:33.24154027718932 25:1.0 26:1.5703981271572212 27:33.06055050963308 28:1.0 29:1.5697902597704783 30:32.802438933713454 31:1.0 32:1.57026916452597 33:31.016124838541646 34:1.0 35:1.5361142146962556 36:31.016124838541646 37:1.0 38:1.5673020206621684 39:29.732137494637012 40:1.0 41:1.5691565175220024 42:26.476404589747453 43:2.0 44:1.5033169975674696 45:24.839484696748443 46:2.0 47:1.541684410982215 48:24.351591323771842 49:2.0 50:1.4967195136741522 51:24.08318915758459 52:2.0 53:1.566837836323382 54:24.08318915758459 55:1.0 56:1.5257997176289453 57:24.020824298928627 58:1.0 59:1.5686800638686114 60:23.600847442411894 
-1.0 1:1.0 2:1.5325224785350655 3:40.496913462633174 4:1.0 5:1.5300459649689815 6:38.2099463490856 7:1.0 8:1.5704560287200298 9:34.36568055487916 10:1.0 11:1.535529934652804 12:34.058772731852805 13:1.0 14:1.570426930489409 15:32.55764119219941 16:1.0 17:0.0020991393181963042 18:32.38826948140329 19:1.0 20:1.5706959016439153 21:32.2490309931942 22:1.0 23:1.476502847637646 24:31.25699921617557 25:1.0 26:1.5447083202117116 27:31.11269837220809 28:1.0 29:1.570578787007752 30:30.4138126514911 31:1.0 32:1.5627956839843606 33:28.600699292150182 34:1.0 35:8.831653206105282E-4 36:28.178005607210743 37:1.0 38:1.5707074047997764 39:28.0178514522438 40:1.0 41:0.0022843300579522808 42:27.0 43:1.0 44:1.569109925510726 45:26.019223662515376 46:1.0 47:1.5707168173729038 48:26.0 49:1.0 50:1.5688943944144003 51:25.612496949731394 52:1.0 53:1.5679628342523402 54:24.0 55:1.0 56:1.5701220938382041 57:23.53720459187964 58:1.0 59:0.0016568599552030437 60:23.53720459187964 
-1.0 1:1.0 2:1.5427297518951453 3:45.803929962395145 4:1.0 5:1.5430247889060653 6:43.01162633521314 7:1.0 8:1.5448380919375317 9:40.45985664828782 10:1.0 11:1.5294316836948507 12:38.01315561749642 13:1.0 14:1.5703152037266466 15:36.05551275463989 16:1.0 17:1.5698972316595121 18:35.0 19:1.0 20:1.5703377742179738 21:34.438350715445125 22:1.0 23:1.5399368803369493 24:33.24154027718932 25:1.0 26:1.5703981271572212 27:33.06055050963308 28:1.0 29:1.5697902597704783 30:32.802438933713454 31:1.0 32:1.57026916452597 33:31.016124838541646 34:1.0 35:1.5361142146962556 36:31.016124838541646 37:1.0 38:1.5673020206621684 39:29.732137494637012 40:1.0 41:1.5691565175220024 42:26.476404589747453 43:2.0 44:1.5033169975674696 45:24.839484696748443 46:2.0 47:1.541684410982215 48:24.351591323771842 49:2.0 50:1.4967195136741522 51:24.08318915758459 52:2.0 53:1.566837836323382 54:24.08318915758459 55:1.0 56:1.5257997176289453 57:24.020824298928627 58:1.0 59:1.5686800638686114 60:23.600847442411894 
-0.9857844041096908 1:1.0 2:1.5325224785350655 3:40.496913462633174 4:1.0 5:1.5300459649689815 6:38.2099463490856 7:1.0 8:1.5704560287200298 9:34.36568055487916 10:1.0 11:1.535529934652804 12:34.058772731852805 13:1.0 14:1.570426930489409 15:32.55764119219941 16:1.0 17:0.0020991393181963042 18:32.38826948140329 19:1.0 20:1.5706959016439153 21:32.2490309931942 22:1.0 23:1.476502847637646 24:31.25699921617557 25:1.0 26:1.5447083202117116 27:31.11269837220809 28:1.0 29:1.570578787007752 30:30.4138126514911 31:1.0 32:1.5627956839843606 33:28.600699292150182 34:1.0 35:8.831653206105282E-4 36:28.178005607210743 37:1.0 38:1.5707074047997764 39:28.0178514522438 40:1.0 41:0.0022843300579522808 42:27.0 43:1.0 44:1.569109925510726 45:26.019223662515376 46:1.0 47:1.5707168173729038 48:26.0 49:1.0 50:1.5688943944144003 51:25.612496949731394 52:1.0 53:1.5679628342523402 54:24.0 55:1.0 56:1.5701220938382041 57:23.53720459187964 58:1.0 59:0.0016568599552030437 60:23.53720459187964 
-0.884457081283807 1:1.0 2:1.5427297518951453 3:45.803929962395145 4:1.0 5:1.5430247889060653 6:43.01162633521314 7:1.0 8:1.5448380919375317 9:40.45985664828782 10:1.0 11:1.5294316836948507 12:38.01315561749642 13:1.0 14:1.5703152037266466 15:36.05551275463989 16:1.0 17:1.5698972316595121 18:35.0 19:1.0 20:1.5703377742179738 21:34.438350715445125 22:1.0 23:1.5399368803369493 24:33.24154027718932 25:1.0 26:1.5703981271572212 27:33.06055050963308 28:1.0 29:1.5697902597704783 30:32.802438933713454 31:1.0 32:1.57026916452597 33:31.016124838541646 34:1.0 35:1.5361142146962556 36:31.016124838541646 37:1.0 38:1.5673020206621684 39:29.732137494637012 40:1.0 41:1.5691565175220024 42:26.476404589747453 43:2.0 44:1.5033169975674696 45:24.839484696748443 46:2.0 47:1.541684410982215 48:24.351591323771842 49:2.0 50:1.4967195136741522 51:24.08318915758459 52:2.0 53:1.566837836323382 54:24.08318915758459 55:1.0 56:1.5257997176289453 57:24.020824298928627 58:1.0 59:1.5686800638686114 60:23.600847442411894 
-0.18358672200092685 1:2.0 2:0.0 3:44.01136216933077 4:1.0 5:1.5469147582810518 6:37.013511046643494 7:2.0 8:1.5689192171644915 9:35.510561809129406 10:1.0 11:1.5468443828033345 12:33.734255586866 13:1.0 14:1.5078807901666307 15:33.61547262794322 16:1.0 17:1.547844288272183 18:32.69556544854363 19:1.0 20:1.5304029232255794 21:31.400636936215164 22:1.0 23:1.5418468469973534 24:31.064449134018133 25:1.0 26:1.5531029828204073 27:28.178005607210743 28:1.0 29:1.5401599851619818 30:28.071337695236398 31:1.0 32:8.85697057449426E-4 33:27.294688127912362 34:1.0 35:0.0066084538693776985 36:26.92582403567252 37:1.0 38:1.4435137850289437 39:25.298221281347036 40:1.0 41:1.4786164804631057 42:25.179356624028344 43:1.0 44:0.002481299690961017 45:24.758836806279895 46:1.0 47:8.188227419749671E-4 48:24.73863375370596 49:1.0 50:1.5666039344838452 51:24.73863375370596 52:1.0 53:1.5705836805228488 54:24.413111231467404 55:1.0 56:1.5408352835351113 57:24.20743687382041 58:1.0 59:1.5683701928212754 60:24.041630560342615 
-1.0 1:2.0 2:0.0 3:44.01136216933077 4:1.0 5:1.5469147582810518 6:37.013511046643494 7:2.0 8:1.5689192171644915 9:35.510561809129406 10:1.0 11:1.5468443828033345 12:33.734255586866 13:1.0 14:1.5078807901666307 15:33.61547262794322 16:1.0 17:1.547844288272183 18:32.69556544854363 19:1.0 20:1.5304029232255794 21:31.400636936215164 22:1.0 23:1.5418468469973534 24:31.064449134018133 25:1.0 26:1.5531029828204073 27:28.178005607210743 28:1.0 29:1.5401599851619818 30:28.071337695236398 31:1.0 32:8.85697057449426E-4 33:27.294688127912362 34:1.0 35:0.0066084538693776985 36:26.92582403567252 37:1.0 38:1.4435137850289437 39:25.298221281347036 40:1.0 41:1.4786164804631057 42:25.179356624028344 43:1.0 44:0.002481299690961017 45:24.758836806279895 46:1.0 47:8.188227419749671E-4 48:24.73863375370596 49:1.0 50:1.5666039344838452 51:24.73863375370596 52:1.0 53:1.5705836805228488 54:24.413111231467404 55:1.0 56:1.5408352835351113 57:24.20743687382041 58:1.0 59:1.5683701928212754 60:24.041630560342615 
-0.8117336900460098 1:2.0 2:0.3009549699298046 3:42.01190307520001 4:1.0 5:1.5408510836430893 6:36.138621999185304 7:1.0 8:1.2509019819600546 9:35.90264614203248 10:1.0 11:0.14565748523147368 12:35.12833614050059 13:1.0 14:1.5119808306561149 15:34.0 16:2.0 17:0.0 18:32.7566787083184 19:1.0 20:1.5270304757955213 21:32.01562118716424 22:1.0 23:1.5698293373324348 24:30.805843601498726 25:1.0 26:1.5074679708909766 27:30.083217912982647 28:1.0 29:1.5705405711019613 30:29.120439557122072 31:1.0 32:1.5346919957703602 33:29.120439557122072 34:2.0 35:0.0 36:29.0 37:1.0 38:1.5616580039073837 39:28.071337695236398 40:1.0 41:1.5697738295362602 42:28.0 43:1.0 44:0.16411617839164416 45:27.073972741361768 46:1.0 47:1.5698366542321431 48:26.019223662515376 49:2.0 50:1.5696171798323504 51:25.317977802344327 52:1.0 53:0.12924003589214408 54:25.179356624028344 55:1.0 56:1.5696816641422486 57:25.179356624028344 58:1.0 59:1.5461852426586749 60:24.839484696748443 
